272 100
</s> -0.039146 0.082547 -0.016216 -0.0093712 0.065821 0.071083 0.043406 -0.0081519 0.060136 0.052704 -0.033129 0.019756 0.032217 0.052474 -0.048691 -0.023456 -0.00039745 -0.0048734 0.027948 -0.041599 0.0022947 0.075676 0.04922 -0.072776 0.029226 -0.028132 0.030964 -0.045862 -0.0024728 0.055515 -0.053482 -0.056264 -0.050643 -0.035963 -0.046318 0.020432 0.00047997 -0.023183 -0.021635 -0.029167 0.046828 0.061816 0.021274 0.050335 -0.010064 -0.022232 -0.010168 -0.049837 -0.073238 0.017682 -0.075682 0.066952 -0.061014 0.047874 0.0072256 -0.024312 0.0078315 0.044665 0.043314 0.060829 -0.065054 0.061489 0.059733 0.061639 -0.0030531 0.0031687 -0.061598 0.039937 0.017565 0.064036 -0.077814 0.025712 -0.023299 0.022379 -0.034156 -0.025641 0.047042 0.020691 0.024249 -0.046389 -0.056257 0.057839 0.10503 -0.041371 0.00040309 -0.053949 0.00797 0.030661 -0.045465 0.0044151 0.08394 0.018794 0.074199 -0.054522 -0.0065723 -0.064679 0.010367 0.064054 -0.039289 -0.065588 
， -0.0015171 0.014752 0.0070355 -0.010243 0.014535 0.017049 -0.0016461 0.00016637 0.0030009 0.0038007 -0.004868 -0.0041171 -0.001882 0.0080863 -0.011818 -0.01001 0.0033204 0.0046858 -0.003412 -0.0051038 -0.004383 0.018831 0.009682 -0.0017691 -0.005461 -0.0089544 -0.0059275 -0.0069116 -0.0023401 -0.001093 -0.011033 -0.0075668 -0.0016765 -0.0098226 -0.011355 0.00061124 -0.0075104 0.0022778 -0.0031787 -0.0057054 -0.005142 0.016644 -0.0028161 0.0095024 0.008223 -0.0013055 0.0073199 -0.0092985 -0.012422 0.0056619 -0.010259 0.0059785 -0.0046652 0.010528 -0.0080382 0.001039 -0.0088703 0.0060164 0.013843 0.0050623 -0.0078842 0.010934 0.012806 0.015402 0.0045297 -0.0033122 -0.014286 -0.00092112 -0.0044669 0.0019858 -0.0074831 0.00835 0.0033416 -0.0046182 -0.0068921 -0.0053783 0.0011338 0.0043996 0.0097245 0.00010196 -0.0058152 0.00093756 0.015085 -0.0013503 0.005628 -0.0025656 -0.0010433 -0.0059938 -0.010248 0.0082062 0.012474 0.0044281 0.011207 -0.004246 0.00815 -0.0050606 -3.1903e-05 0.0097097 -0.011257 -0.015166 
送 0.0075405 -0.0084993 -0.00079814 -0.003468 -0.00018917 -0.0077655 -0.0086781 -0.0092954 0.0091872 0.0090033 -0.0097561 -0.0024697 -0.0019866 -0.0063026 -0.0025814 0.0047843 0.0024923 -0.002829 -0.0078235 0.003415 0.0070029 -0.0070932 -0.0066942 0.0030546 -0.00053203 -0.001134 0.0048734 -0.0091672 -0.0083291 0.0019413 0.0034353 0.0074646 -0.0042056 0.0032711 -0.0081613 -0.0073022 -0.0075068 0.0090336 0.0088496 0.0085957 -0.0080198 0.0041048 0.0046302 -0.0004606 0.0038137 0.0048138 0.0081509 0.0080256 0.0067161 0.0071912 -0.0010781 -0.00079127 0.0057754 -0.0061001 -0.0096938 0.0081125 0.0017954 -0.0087967 -0.0071359 -0.0047648 0.010296 0.008023 0.006321 0.006099 -0.0064373 0.0031548 -0.0051923 -0.0025865 0.0039946 -0.0093146 0.0077506 0.0032354 0.0035826 -0.0099504 -0.0087823 0.0034729 0.0085154 -0.0040661 0.0086271 -0.0074943 0.0089867 -0.0029999 -0.0079531 -0.0048319 -0.0021171 -0.006562 -0.0024503 0.0092025 0.0069151 -0.0037017 -0.0070514 -0.00068741 0.0062214 -0.0026997 0.0034065 -0.00071715 -0.0021454 0.004907 0.0061162 0.0094653 
的 -0.0057482 0.023943 -0.008068 -0.004844 0.01281 0.021684 0.0014096 -0.002113 0.015955 0.015104 -0.010407 0.01222 -0.0027044 0.013249 -0.0034268 -0.0098379 -0.0069145 -0.0098362 0.013019 -0.0035472 0.0091009 0.022004 0.0082723 -0.011743 -0.002405 0.00052466 0.01367 -0.010634 -0.0093646 0.0040796 -0.0025115 -0.005062 -0.0090214 0.002629 -0.0092244 0.012002 0.00149 -0.0068932 -0.0055386 -0.00014054 0.009427 0.010339 -0.00038293 0.0028551 -0.001826 -0.0091874 0.006164 -0.010104 -0.0082203 0.0095054 -0.023096 0.0055824 -0.0088284 0.0017929 -0.00027307 -0.0089739 0.00094177 0.01104 0.012072 0.012032 -0.019711 0.013783 0.013606 0.0027733 -0.0068432 0.0028115 -0.010053 0.0013618 0.00050279 0.0073185 -0.004756 0.0075378 -0.0032216 0.0081735 -0.0068593 0.0041014 0.012163 0.011421 0.011556 -0.015985 -0.008291 0.01327 0.02676 -0.0010304 0.010674 -0.0090437 0.00021397 0.013442 -0.017542 -0.0072637 0.015748 -0.003194 0.013816 -0.0058855 -0.007712 -0.014915 0.0011868 0.015067 -0.0091033 -0.010003 
好 -0.012366 0.024494 -0.0024613 -0.00041633 0.025624 0.027568 0.01396 -0.011665 0.018867 0.015549 -0.0086604 -0.00034105 0.0011499 0.014781 -0.0031179 -0.0048594 0.0027312 -0.0048989 0.0013468 0.0001173 0.0092142 0.0154 0.0070499 -0.026687 0.0092929 -0.0021168 0.016915 -0.0074532 0.0070334 0.01886 -0.0072144 -0.022776 -0.018869 -0.0095723 -0.0089583 0.01254 -0.0096851 0.0053783 0.00066067 -0.0052653 0.0059393 0.011973 0.012219 0.022242 0.0033668 -0.016349 -0.0022578 -0.0032435 -0.019309 0.001011 -0.023137 0.020551 -0.0092646 0.01197 0.011217 0.0021776 -0.0034936 0.016444 0.0010529 0.024519 -0.012644 0.016693 0.0097561 0.013961 0.0076011 0.0059727 -0.01871 0.00029193 -0.0032705 0.019306 -0.022066 0.0059944 -0.012377 0.012401 -0.014018 -0.010029 0.0030237 -0.0065959 0.01148 -0.013523 -0.020178 0.015689 0.026072 -0.0050565 0.00073734 -0.015055 0.0046602 0.013533 -0.015677 0.0096871 0.02532 0.0044065 0.026217 -0.012614 0.00022194 -0.0072944 0.00064576 0.0054064 -0.015069 -0.022706 
谢 0.0014758 0.023912 0.0035379 -0.0063656 0.020561 0.021214 0.0015027 -0.0049137 0.0043643 0.020378 -0.0079417 0.008151 0.00057938 0.010033 -0.017719 -0.0015616 -0.0066524 -0.010901 0.014207 -0.015033 -0.0061361 0.019411 0.017458 -0.01988 0.0085431 0.0008191 0.0073905 -0.017299 -0.0084584 0.0050165 -0.018803 -0.0066262 -0.015529 -0.0087368 -0.0057595 0.011675 -0.0079136 -0.0088951 -0.0133 0.0030671 0.003368 0.01375 0.00027146 0.015795 0.0064559 -0.0093782 -0.0044119 -0.021546 -0.022025 0.01202 -0.023519 0.0065995 -0.023191 0.017595 0.0061955 -0.0023601 0.0035629 0.01051 0.01072 0.01252 -0.023648 0.010848 0.02231 0.010978 0.0049554 0.0032815 -0.023693 0.0024643 -0.0027953 0.022572 -0.019704 0.01316 0.0047261 -0.0043679 -0.012056 -0.0079693 0.012732 -0.0047152 0.00049378 -0.014314 -0.0070063 0.018539 0.027233 0.0015541 0.0080232 -0.013193 -0.0072934 0.0091514 -0.019581 0.011658 0.018044 0.0019608 0.0086639 -0.0096632 -0.0016791 -0.014357 -0.0075211 0.013423 -0.014604 -0.02393 
？ 0.0031078 0.0092886 0.007315 -0.0091892 0.0042889 0.01311 0.0091866 -0.002756 0.0075801 0.0061539 -0.0036161 0.0081139 -0.0067978 -0.003443 -0.010996 0.0054745 -0.0018241 -0.0037098 0.0041641 0.00057208 0.008034 0.018427 0.0076603 -0.01347 0.0050409 0.0025244 -0.0016057 -0.0062708 0.0003636 0.015164 -0.012764 -0.017081 -0.011612 -0.0020768 -0.0010337 0.0088036 0.0040783 0.0016874 -0.0026919 -0.0019908 0.00091984 0.013827 0.0075906 0.0015187 0.006892 -0.0093009 0.0087297 -0.013612 -0.0089173 -0.0040808 -0.0040383 0.013917 -0.012547 0.0059702 0.0058928 -0.0058038 -0.00035254 0.0089312 0.013387 0.0057933 -0.0082288 0.013887 -0.0021977 -0.0016256 -0.0058508 0.0062771 -0.017068 0.0085729 0.00024041 0.017622 -0.016773 0.0054378 -0.0078038 -3.1115e-05 -0.0031568 -0.0019271 0.0047493 -0.006383 -0.0043423 -0.0086936 0.00020421 0.014596 0.016806 -0.010706 0.0076096 -0.01125 0.0086537 0.00938 0.0033801 0.0013664 0.0084514 -0.0028326 0.0054964 -0.0069097 -0.0076498 -0.015358 -0.0015043 0.0031306 0.0035873 -0.017732 
0 -0.005405 -0.0062922 -0.0079303 -0.0063769 0.0064121 -0.0052002 -0.0055303 0.0013485 -0.00085511 -0.0080967 0.0045551 -0.0091791 -0.00074072 0.0077033 0.0078798 -0.00047977 -0.0051359 0.0014392 0.0011531 0.0060128 0.0012918 -0.0060988 -0.0083163 0.0052307 -0.0064077 -0.0050155 -0.0057168 0.0065684 -0.0046514 0.00075569 0.00089891 0.0095102 0.010812 0.0051814 -0.0081808 0.0042102 0.008207 -0.0085666 0.0087297 0.0031542 0.0037626 0.0037226 -0.00049053 0.004932 0.0052173 0.0062474 0.0078667 0.0093242 0.0085435 0.0092497 -0.0040832 -0.002552 0.0072777 0.006912 0.0020253 -0.001143 9.3998e-05 -0.00066366 0.0043218 -0.0093359 0.00099965 -0.010055 0.0075089 -0.010735 -0.0065197 -0.0075198 0.0049266 -0.0038552 -0.0089698 -0.0070202 -0.0035612 0.0049361 -0.0079325 0.00017105 0.0095869 0.0093224 -0.0075112 0.0063115 -0.0054082 -0.0012852 -0.0005729 -0.0060969 0.0040311 0.0093698 0.00073384 0.010749 -0.0010533 0.0032325 0.0023278 -0.003552 0.0066072 -0.0039077 -0.011514 -0.0029207 -0.0097211 -0.0038977 -0.0033597 -0.011792 0.0083614 -0.00030235 
吗 0.002402 0.0033704 0.0072255 -0.0044483 0.014468 -0.0014544 0.0026142 0.001724 -0.002622 0.0016225 -0.012492 -0.00063077 -0.0011703 0.015075 -0.0011014 -0.0095586 0.0013929 0.0038006 0.01171 -0.0046748 -0.0083015 0.0053191 0.0086278 -0.013794 0.0023796 -0.0059633 0.012526 -0.014014 0.0087483 0.010676 -0.0036264 0.0035522 -0.00015224 -0.0057631 -0.011303 0.0050192 0.0081937 0.0023478 -0.00073524 0.0069567 -0.0040293 -0.0031718 0.011682 0.012776 0.0068394 -0.010841 0.0030409 -0.0002495 -0.01073 0.011649 -0.011862 0.011572 -0.012722 0.012392 -0.00059741 0.0050891 -1.801e-05 -0.0042281 0.00041731 0.011799 -0.0095687 0.0082526 0.012331 0.016503 -0.0026894 -0.0064489 0.0021328 -0.00068733 -0.0037693 0.0035925 -0.0045276 -0.0058391 -0.00012076 0.010896 0.0051941 0.0048586 -0.0020482 0.0073758 0.011332 0.0044866 -0.0072033 0.0030412 0.009287 -0.011484 0.0095322 0.0013894 0.0059638 0.0059821 -0.0046636 0.0031247 0.0074952 -0.0031608 0.016083 0.00096943 -0.0056174 -0.0088349 -0.0019828 0.015993 0.0034726 -0.011001 
你 -0.011764 0.010576 0.00023859 0.0058636 0.007948 0.017608 0.0099831 -0.0003541 0.0037671 -0.00038422 -0.011872 -0.0023738 0.009931 -0.0024236 -0.014461 -0.0093951 -0.0040766 -0.011377 0.0066636 -0.0089539 -0.0038908 0.0078694 0.0091194 -0.014235 -0.0049455 -0.0037501 0.011514 -0.014211 0.0053261 6.2248e-05 -0.0047803 -0.015177 -0.0019508 -0.0099544 -0.010025 0.0015704 -0.0058866 0.0061636 -0.0022278 -0.0032922 0.0087704 0.015006 0.00055152 0.011355 -0.0019151 -0.0032955 0.0039934 -0.0090636 -0.010987 0.00073497 -0.011521 0.00082606 -0.0063919 0.0047459 0.0065196 0.0014852 0.0042145 0.015819 0.015808 0.014588 -0.013917 0.011118 0.0082514 0.013606 -0.0034067 -0.0065495 -0.011204 0.014441 -0.0022483 0.013352 -0.0067818 -0.0010692 -0.0012516 0.0090828 -0.0051899 0.0023902 0.0026073 0.0030404 0.010824 -0.0078414 0.0014521 0.0018914 0.020449 -0.014166 -0.0059498 -0.0052239 -0.0087029 0.0096522 -0.007951 0.0012808 0.013969 0.0097961 0.01992 -0.012158 -0.010423 -0.011919 -0.0079685 0.0092457 -0.0098829 -0.01962 
我 0.0046784 0.0068023 -0.0068098 0.0074708 0.012996 0.0055563 0.00045656 -0.0019594 0.0023379 0.00036774 0.0065141 0.0018149 0.0015516 0.0034642 -0.0049628 -0.0044435 -0.00058673 -0.0075679 0.010632 0.0047254 0.0029696 0.0027693 0.012164 -0.014111 -0.0031879 -0.0089184 0.0092989 -0.0060495 -0.0038907 0.004544 0.0069006 -0.010952 -0.0029388 -0.0049851 0.0042851 -0.0066269 -0.00025962 -0.0017266 -0.0025251 -0.010399 -0.0025947 0.002034 -0.0078055 8.7023e-06 0.0064686 0.0084755 -0.0030751 0.0024595 -0.010596 0.0015368 -0.014075 -0.00072283 0.0033661 0.0016453 0.0038761 -0.0083879 0.0018366 0.012006 0.0092242 0.0045751 0.0024098 0.0092923 0.0071468 0.0099768 -0.0039361 0.0098524 0.00087051 0.0027867 -0.0042241 0.013006 0.0048664 0.010708 0.0048838 -0.0061835 -0.0046669 -0.0030746 0.002678 0.0083289 0.005757 -0.0079227 -0.0056648 0.0089645 0.0022546 -0.0051366 0.0099753 -0.0093335 -0.0034927 0.0022477 -0.0097034 -0.0018882 -0.0006036 0.0041051 0.010986 -0.011131 -0.010292 -0.012595 0.0060639 0.00074198 -0.0074267 6.176e-05 
是 0.0051532 0.014281 -0.0060627 0.0079583 0.0023725 0.01315 0.013946 3.5537e-05 -0.0026935 -0.00031139 -0.010236 0.0030889 0.0097296 0.0040214 0.0015066 -0.0030599 2.4771e-05 -0.0087966 0.0032827 -0.0013212 0.0035211 0.013387 0.0056228 -0.00077211 -0.0043768 0.0035235 -0.0007586 0.00061611 -0.009793 0.0083622 -0.0011526 0.0030511 -0.0065052 -0.01305 -0.0026616 0.0028831 -0.0004162 -0.0040894 -0.0026242 -0.00046559 0.0073636 0.010609 0.0089414 0.013536 0.0041528 -0.0011588 -0.0015398 -0.0033181 -0.013994 0.0092181 -0.013797 0.0063715 -0.0014152 -0.0035028 0.0098783 0.0025103 0.0031563 0.0011683 0.011063 -0.0037607 -0.00021254 0.0084329 0.013075 0.014192 0.0082312 -0.003909 -0.009415 0.0080251 -0.0062717 0.0081885 -0.012212 0.0033458 0.006953 0.0071687 -0.009872 0.00082931 0.0016984 -0.001389 0.010185 -0.013324 0.0018088 0.009366 0.0038169 0.002211 0.0065212 0.00088695 0.0097031 0.004826 -0.0028886 -0.0083467 0.0053894 0.010185 0.0065602 0.0048538 0.0045655 -0.0065224 -0.0085947 0.0032245 -0.012975 -0.012932 
点 0.0034263 -0.010647 -0.0065654 -0.0051053 0.0058714 -0.0030855 -0.011075 -0.0031723 0.0012537 -0.0052889 -0.00067072 0.0080311 0.0086358 0.0057867 0.0054392 -0.00010714 -0.00079726 -0.0027161 0.0062962 -0.0031505 0.0084547 -0.0037489 0.0024674 0.0052002 -0.0042761 -0.0063529 0.0050102 0.010262 0.0077969 -0.0065027 0.0038278 0.0057951 0.0090864 0.0034423 -0.0073918 0.0025038 0.0089425 -0.0058727 -0.0058419 -0.00060323 0.0040559 -0.0081194 0.0083605 -0.0098579 0.0078009 -0.0066801 -0.00022596 0.010709 0.0051426 0.00070967 0.0079568 -0.01235 0.0015456 -0.0074936 -0.0037587 -0.0047696 -0.0080846 -0.005933 -0.0096424 -0.0073209 0.0061339 0.0035182 0.0026237 -0.0035504 -0.008097 0.0068901 -0.0060558 -0.0018709 0.004259 -0.0082562 0.0074819 0.0052743 0.0068058 -0.0059298 6.3046e-05 -0.0070684 0.0013474 0.0085725 -0.0003415 0.0094359 0.0035519 -0.00087015 -0.0018826 -0.0028502 0.005172 0.0031464 0.0004799 -0.0039074 -0.0030516 0.0006797 -0.0022456 -0.0097176 -0.0047064 -0.0063955 -0.0031197 -0.0040306 0.0049622 -0.01184 0.0015609 -0.004138 
可 0.00096951 0.0029159 0.0046021 0.0063304 -0.0001118 0.011903 0.0067458 -0.0067684 0.012282 0.006666 -0.00036738 0.0063252 -0.0066488 0.0090642 -0.0065437 0.0042237 0.0053526 0.007432 -0.0073909 -0.006347 -0.0025963 0.001461 -0.0010813 -0.0045044 0.0074115 0.0018349 0.010762 0.0012069 0.0066567 0.0057704 0.0020592 -0.0039321 -0.0063755 -0.007627 0.0046024 0.0090608 -0.008485 -0.01023 0.0027803 -0.0053932 0.011677 0.0063657 0.00065051 0.009031 0.0058504 -0.0076882 -0.0094142 -0.0028051 -0.0015403 -0.0019568 -0.006886 0.012774 -0.01351 0.0076489 -0.0088751 -0.0040865 -0.0067929 0.0074497 -0.0067437 0.0093669 -0.01385 -0.00010928 0.0075002 0.014868 -0.0022765 -0.0054517 -0.0096714 0.003568 0.0057498 0.0022778 -0.015315 0.0081834 0.0029353 0.00092703 -0.0081067 -0.0095064 0.011536 -0.0082089 -0.0046784 -0.0053887 0.0011997 0.0087689 0.00017785 0.0043176 -0.0016053 0.0029048 0.0081221 -0.005395 -0.006556 0.0060116 -0.00060314 0.006327 0.010688 -0.010398 -0.002867 -0.0033534 -0.0018956 0.0026606 0.0066663 -0.0082485 
以 -0.00052493 -0.0019959 0.0015225 0.0069951 0.011496 -0.0036291 0.0057057 -0.0044302 0.0060089 0.0076533 -0.0071336 0.010382 -0.0076382 0.00016743 -0.0087668 -0.0046463 -0.00030016 0.0072537 -0.0028358 0.0068412 -0.0062828 0.011993 0.0046882 -0.012099 0.004158 0.0033609 0.010025 -0.013502 0.0057672 0.0092003 -0.0082453 0.0033863 -0.011813 -0.0095291 0.0056834 -0.0031449 0.00015017 0.003868 -0.0076249 -0.010851 -0.0036828 0.011016 -0.0033606 0.0039317 -0.0020964 -0.003239 0.0091538 -0.0095128 0.0031024 0.0043916 -0.013798 0.012038 -0.0079117 0.0019148 -0.005305 -0.0080256 0.00067673 0.00039725 0.0057986 0.0092391 -0.011835 0.0074223 -0.0047717 0.011632 0.0087931 -0.0066795 -0.0051639 0.0034493 -0.0010052 0.0082335 -0.014251 -0.00066993 0.0026473 -0.0078349 -0.012023 0.0073691 0.011813 0.0088479 -0.0017465 0.0049414 0.0010453 -0.0037029 0.0066305 0.005327 -0.0016899 -0.0089214 0.0062473 0.0044867 -0.0068387 -0.0083108 0.014362 0.0045985 0.00044659 -1.4525e-05 -0.0088597 -0.014112 -0.0025305 0.0057653 -0.0015117 -0.0060955 
到 0.0010671 0.010938 -0.0045226 -0.0090791 0.0070583 0.010467 -0.0040071 -0.0076825 -0.0011551 0.0093239 0.0037986 -0.0078995 0.0031483 0.0051305 0.00363 0.0086111 -0.0027997 -0.00029799 -0.0057134 -0.0090334 0.008981 -0.0050934 -0.0067618 0.0055538 0.0016355 0.0022896 -0.0036361 0.006869 -0.0094715 -0.0028205 0.0014674 0.004757 0.0069334 -0.0080509 -0.0088971 -0.0046639 -0.0096231 -0.0060042 -0.00010082 0.0084568 0.0018194 0.0081741 0.010529 0.0091123 -0.0045772 -0.0094656 0.0027724 0.0073767 -0.0020333 0.0085712 -0.0078425 0.013002 -0.0022654 -0.001279 0.0061775 0.0064574 -0.0023943 -0.0046297 0.0093278 -0.00055597 0.0013289 -0.0031362 -0.0038511 0.0073427 0.0059058 -0.0060411 0.006033 0.003315 -0.0055902 0.0099506 0.0032779 0.0095158 -0.010973 -0.0053892 0.0061368 -0.0046904 -0.0011731 -0.0082091 0.0035091 -7.0786e-05 -0.0022764 0.012684 0.0084756 0.001115 -0.0018835 -0.0099579 0.0047762 -0.0075049 -0.00092406 -0.0094053 -0.0054936 0.0061771 0.0084849 -0.0060773 -0.0018964 0.0027841 -0.0042017 0.00025811 0.003746 -0.00064609 
1 0.0037813 0.0024776 -0.0039673 0.0013563 0.0039905 0.0070138 -0.0061425 -0.0040607 0.0087877 0.005507 0.0063796 0.0060209 -0.0050365 0.0046986 0.00347 -0.0062116 0.0018742 0.0034412 -0.0059782 -0.0026618 -0.00099124 0.0061246 0.0099571 0.0059594 0.00099032 0.0025896 0.0066429 -0.0012952 -0.0026419 0.0052407 0.0095903 -0.001891 0.00065394 -0.007912 -0.0099577 -0.0066597 -0.00087393 -0.0039565 0.0088966 -0.00077197 -0.0071202 0.0092825 0.0058529 0.0072731 0.0041819 0.0083458 -0.0005105 0.0054171 0.0067128 -0.00078528 0.0055147 0.00294 0.00096359 -0.0061522 -0.00058577 -0.0012253 0.0093928 -0.0026133 -0.0014491 0.0013229 0.0035178 -0.0093674 0.0095091 0.0025893 0.0022404 0.0042383 0.0084069 0.0018383 0.0052532 -0.0036482 -0.0046694 0.0043154 0.0089324 0.0063063 0.0058226 -0.00039397 0.0025269 -0.0026135 0.0080566 0.0054239 -0.0060833 0.0015302 0.0019807 0.0082853 0.0021564 0.005691 -0.0092962 -0.0086832 0.006423 0.0053109 0.0082633 0.0070971 0.0094032 0.0094269 0.0034257 -0.010263 -0.0010188 0.0059961 0.0057656 -0.0028623 
个 0.0051243 -0.0023045 0.00016081 0.0015638 0.0029702 -0.0040556 -0.0051684 0.005092 0.0087652 -0.0056227 -0.0046123 0.0038418 -0.0047149 0.0030178 -0.012803 0.0081977 0.0074834 -0.00035212 0.00089754 -0.011699 0.0048174 0.0043244 -0.0061247 -0.0089767 -0.0039296 0.0059025 0.0045849 -0.010788 -0.0020164 0.0079427 -0.0075827 -0.0072092 -0.0019539 -0.005746 -0.0022984 -0.0020066 0.0065543 -4.6298e-05 0.00086895 -0.0079066 0.0099519 0.0058077 -0.0016768 0.0072511 0.0029696 -0.0087176 0.0051736 -0.0083282 -0.0098695 -0.0031838 -0.012763 0.0070194 -0.0089281 -0.00089633 0.0085156 -0.0081217 0.0047631 0.0047463 0.00055497 0.0028897 -0.013317 -0.002392 0.011713 0.01317 -0.0034097 0.0075996 0.0015285 0.011665 -0.0015604 0.01137 -0.01171 0.0078266 -3.3729e-05 0.0022657 -0.0017392 -0.010444 0.00031396 0.0085455 0.0089076 0.0054303 0.0063312 0.0012095 0.0046067 -0.011819 0.0043414 -0.0038881 0.0017732 5.6468e-05 0.0040094 -0.0079268 0.013944 -0.0054751 0.011374 9.3218e-05 -0.00025096 -0.0075419 -0.0023695 0.0017298 -0.0072859 0.0013647 
下 0.0041559 0.013647 -0.0078184 -0.008488 0.0061892 -0.0025268 -0.00075119 0.0076142 0.002809 0.0071776 -0.0085057 -0.0010982 0.005854 0.011879 0.0034122 0.0048166 -0.0053656 -0.0041031 0.0050127 -0.0064874 0.0026695 0.0068478 0.0029681 -0.0021262 -0.0012087 -0.0043912 0.0097587 -0.012911 0.0015862 -0.0051657 -0.0072129 -0.011906 0.0028721 -0.0071582 -0.0063921 -0.0035607 0.0019461 -0.0090311 -0.0096109 0.0029281 0.008359 0.0035356 0.0022438 0.00033939 0.0011491 -0.011233 -0.0079245 0.0054162 -0.0064629 -0.0034743 -0.01389 0.013528 -0.012323 0.0088865 -0.0071804 -0.0029881 -0.0049069 0.012175 0.011009 0.013391 0.0042722 0.0038657 0.012412 0.012912 -0.00060548 0.0029812 0.0022892 -0.0011925 -0.0068793 0.0073996 -0.009708 0.00088962 0.0023614 0.00048316 -0.0028221 0.00041463 0.0095962 0.0015265 0.0028957 -0.0057749 0.0016457 -0.0055622 0.012178 -0.0019572 0.0089335 0.0060917 0.00084853 0.0087344 0.0022111 0.00041149 0.0069633 0.0087343 0.014083 -0.012377 -0.0080661 -0.0067632 -0.0055766 0.0073651 -0.0056861 -0.00076107 
时 0.0027481 -0.0017986 0.0072229 0.0064212 0.0102 0.010941 0.0023282 -0.0010767 0.0013019 0.005636 -0.0086474 -0.0089821 0.0034981 0.0049062 0.0004238 0.00043604 -0.0046657 -0.0064746 -0.0078139 -0.011108 0.0056724 0.005851 0.0099531 0.0023 -0.0046071 -0.0081308 -0.0027571 0.0050621 0.0022417 0.0040195 0.0021371 -0.0023556 0.004289 0.0057371 -0.0047614 0.00011776 -0.008618 0.006936 -0.0034085 -0.0094108 -0.00047544 0.006301 -0.0070788 0.010043 0.0048868 0.0086336 -0.00017522 -0.010178 -0.0017263 -0.008108 -0.0067789 0.0066616 0.00072236 0.0017705 -0.0048171 0.0045345 0.007127 -0.001432 0.0065964 -0.0062183 -0.010802 0.0027671 -0.0072705 0.0033025 0.0043654 -0.0031325 0.0026411 0.0089142 0.003263 0.011066 -0.010018 -0.0011732 -0.0053759 -0.0053426 -0.0064082 -0.0026726 0.0078037 0.006435 0.0065308 -0.0028739 0.0069801 0.0040028 0.003673 -0.00069927 -0.0088281 0.0044053 -0.007723 -9.1951e-05 0.004368 -0.009094 0.00828 -0.0010667 0.0084901 -0.0095375 -0.0046206 -0.0013794 -0.0056637 0.0096054 0.0015849 0.0043084 
2 0.0025726 -0.0098025 0.0051011 0.0096308 -0.0082392 0.0016825 0.0052589 0.0036456 0.0089096 -0.0026119 -0.0040828 0.0011567 0.0044542 0.0056974 0.0038757 0.0063542 0.0027795 -0.0046278 0.0069144 -0.0039517 -0.0099748 -0.0028047 0.0061385 0.0019103 0.0037481 -0.0044413 -0.002986 0.0030668 -0.0041322 -0.0070743 -0.0011798 -0.0026229 -0.0041628 0.0032533 -0.0083204 -0.0053753 0.0090672 0.0055803 0.0070279 0.0093787 -0.0084284 0.0012229 0.00041141 0.0079003 0.0060101 0.0065954 -0.0045901 0.0014717 0.004514 0.0082972 0.004992 -0.0071467 -0.0087959 0.00036485 -0.0057431 -0.0034157 0.0078218 -0.0031595 -0.0049009 0.0055963 -0.0087808 0.0013144 -0.0047405 0.0047588 -0.0084003 -0.0033333 0.0039234 0.0019919 -0.0025491 -0.00718 -0.0089644 0.0088028 0.0071781 0.0091606 -0.0061698 0.007862 0.0056836 -0.00078522 -0.0004866 -0.0072897 0.0071897 0.007221 -0.0051533 -0.0070826 0.004408 0.0019431 -0.0030693 0.0084913 -0.0010788 -0.0092165 0.004452 0.008944 0.0045676 0.0024538 -0.0087203 -0.0049778 -0.0027028 -0.010314 -0.0068791 -0.0036653 
一 0.0013916 0.01181 -0.0037683 -0.0085716 0.0053989 0.0092849 -0.0077931 0.0020084 -0.004123 -0.0031745 -0.0033527 0.0095129 -0.00037187 0.010362 -0.0065244 0.0040857 0.0048816 0.0010872 0.011308 -0.0072991 0.00875 -0.0050204 0.011883 -0.0038808 0.00072567 -0.0058767 0.0072762 -0.0058641 -0.0074094 0.0038223 0.0070523 0.0047747 -0.0013986 0.00686 -0.0014508 -0.0082979 -0.0048186 -0.0034737 -0.0098243 0.0031266 0.0071242 0.011844 -0.0019307 0.0022223 0.0029274 -0.0090359 0.0044055 0.00067291 -0.0032336 -0.0078862 -0.0055384 0.0095227 0.0010003 -0.0035596 -0.0051243 -0.0045964 -0.0022243 -0.0052875 0.0015744 0.0021863 -0.0091533 0.0026143 0.0070093 0.0039919 -0.0088173 -0.0096529 0.0025991 0.001851 0.0064588 0.0064805 -0.01299 0.00065553 -0.001038 0.0017666 -0.0063439 0.0037834 -0.0076336 0.0030387 0.0023347 0.00073381 -0.0023019 -0.0021119 0.0071702 -0.0090745 0.0038536 0.006446 0.00059166 0.0016866 -0.006446 -0.0063934 0.011533 -0.004047 -0.0033426 -0.0076103 0.0087756 -0.012778 0.0016267 0.0040696 0.0063929 -0.009502 
了 -0.0037557 0.0086535 0.0076935 0.0065812 -0.0065322 0.0087557 0.0011675 0.0025885 0.0096869 0.0054815 -0.0012385 -0.0030918 0.00077967 0.0030629 -0.0086265 0.007786 0.0066589 0.0069594 -0.0060517 0.0056038 -0.0013227 0.011649 -0.008277 -0.0037793 0.0016706 0.0033767 0.0069243 0.0068005 -0.0081321 -0.0025156 0.0049211 -0.0023806 0.0085496 0.0013462 0.0032526 0.0077587 0.0070732 0.0080307 -0.0068887 0.004136 -0.0076077 0.002429 -0.0092897 0.0036171 0.0061743 -0.00086498 0.0095654 -0.0058062 -0.0080925 -0.0077336 0.0070762 0.011014 0.0028006 0.0099982 -0.0023312 -0.009607 -0.0044947 0.0095045 0.0090673 0.0037999 -0.005171 0.001715 -0.0044978 0.0072586 0.0044081 -0.0092182 0.008223 0.0019737 0.0069779 0.0039186 0.00193 -0.002288 -0.0082591 -0.007357 0.0003217 -0.0045405 0.00084598 -0.0088717 -0.0015876 -0.0024984 -0.0043005 0.0053019 7.9198e-05 0.0010619 -0.0094343 -0.0015862 0.010105 -0.0022673 -0.0013172 -0.0073149 -0.0020797 -0.0082923 0.00046781 -0.0093075 0.0047543 0.0019325 0.00079745 0.0020945 0.0042385 -0.011329 
在 -0.0070673 0.0092933 -0.0028319 0.0080593 0.0013323 0.013144 -0.0034597 -0.005888 0.0068452 -0.0051049 -0.003008 -0.0053287 0.0045277 0.012216 -0.010659 0.0067417 0.0073506 -0.0088454 -0.0063336 0.0023734 -0.0015785 0.0066361 -0.0037749 -0.0031534 -0.0077761 -0.0062465 -0.0079063 0.0010878 0.0022214 -0.0017723 0.002783 -0.012821 0.0048745 0.0045273 0.0055655 -0.0078577 0.0075166 0.0063568 -0.0064505 0.0011668 -0.0060231 -0.0050602 -0.0013695 0.0076745 0.0023639 0.0068101 0.0057787 0.00036852 0.0040754 -0.0092102 0.0052686 0.0082229 -0.006184 -0.0015039 -0.0068262 -0.0063263 -0.003676 0.0069764 0.00044348 0.0105 0.0044912 0.01213 -0.001078 -0.0010811 -0.0042755 -0.0024981 -0.010312 -9.7331e-05 -0.0066407 -0.0064794 0.00043823 0.0062237 -0.0035726 0.0026835 -0.0012572 -0.0023535 0.00050715 -0.0088428 -0.0029365 0.0035995 -0.0027369 -0.0024965 0.00012339 0.0058135 0.0067567 0.0065157 0.0012192 0.0090238 -0.0080554 0.0094228 0.0015088 -0.0032906 0.012203 -0.0052573 0.0028584 0.002987 0.010076 0.0086043 0.0037365 0.0037238 
9 0.0055598 0.0027982 -0.0093984 0.0020113 0.0051017 0.0018796 -0.0044212 -0.0055351 0.0023993 0.0075569 -0.0078011 0.002496 -0.0014874 0.0014626 0.0019283 0.0079283 -0.0036423 0.0051921 0.0044589 0.00093432 0.0034463 0.0014544 0.00092961 -0.0041016 0.0070537 -0.0012205 0.0060774 -0.0035937 -0.0064753 0.0097208 -0.002044 -0.00080785 0.003332 0.0073963 -0.0038503 0.0051356 0.0019791 -0.00019639 -0.002881 0.0024933 -0.0020196 -0.006691 0.0031745 -0.0059344 -0.0040046 -0.0095458 -0.0061799 -0.0034555 -0.0072928 0.00061669 0.0076193 -0.0042359 0.0057611 -0.0083429 0.0042658 0.0078618 0.0098099 -0.0038179 0.0088305 -0.0033053 0.0035307 -0.0028002 -0.0029149 0.0084288 -0.0042799 0.002486 0.0064569 -0.0026366 0.0093234 0.0098552 -0.0068759 0.0057194 -0.0028637 0.004219 -0.0079856 -0.00975 -0.0055383 0.0061626 0.00024926 0.003847 -0.0038286 -0.0023417 -0.0074998 -0.0065335 -0.0018537 0.0068465 0.0032458 0.0048031 -0.0048601 0.0043231 0.010157 0.0012714 0.00028458 -0.0035504 0.0059873 -0.0098391 -0.0034741 -0.0081886 0.00021499 0.0050157 
糕 0.0043282 -0.0047251 0.0031783 0.0074049 -0.0064348 -0.0084075 -0.0075651 -0.0026232 0.0085646 -0.0060356 -0.0055902 0.0090191 -0.0077135 -0.0082965 -0.0088334 0.0085396 0.0027239 -0.0075133 -0.0078772 0.0069737 0.0016943 0.0018224 -0.00032929 -0.0035341 0.0034114 0.0018766 0.003643 -0.010185 -0.0069804 0.00038125 0.0081913 -0.0042706 -0.0085139 -0.0062476 -0.010062 -0.0042655 -0.0083611 -0.0094488 0.0031324 0.0014152 -0.0067422 0.0049315 0.0032421 -0.00089472 -0.0094218 0.0066555 -0.0044445 -0.0085025 -0.0056113 -0.0062304 -0.0051645 -0.0030309 0.0085043 0.008587 0.0031025 0.0081907 -0.0066843 -0.00017546 0.0010538 0.0017424 0.0063041 -0.0091602 0.00074589 0.0027462 -0.0099223 -0.0096057 0.0076225 0.0035868 0.0027307 -0.0037428 -0.0088091 0.0045235 0.00015353 0.0074406 0.0030148 0.0023887 0.00070908 0.0052098 -0.0024715 -0.0007118 -0.0044251 -0.0071871 -0.00013333 -0.00023991 -0.0056766 0.0050516 -0.0041003 -0.0018389 -0.0075443 -0.0086291 -0.0083641 -0.0068588 -0.0080624 0.0034604 0.00052455 -0.0097415 -0.0050599 0.00023748 -0.007502 -0.0013946 
么 -0.00059251 0.003151 0.0015666 0.008513 0.0068977 0.0081941 0.0013984 -0.0067283 0.0029157 0.0049688 0.0017571 0.0019074 -0.0016979 -0.0012797 -0.0012365 -0.0084492 -0.0051736 0.0090238 0.0036545 -0.005497 -0.0023157 -0.00040097 -0.0040586 0.0051767 -0.0060971 -0.0068235 -0.0042265 -0.012122 -0.0012882 -0.0046063 -0.011618 -0.002094 0.0049224 0.0047231 -0.0075327 0.0020462 0.00015036 -0.0021826 -0.0014874 0.0051433 0.0001684 0.0097636 -0.0032168 0.0089725 -0.0098417 -0.0027641 0.00071306 0.0027944 0.0064882 0.0097914 -0.013155 0.006328 -0.0018291 0.008686 0.0067783 -0.0089091 0.00070527 -0.0059247 0.0085515 0.0024593 0.0029964 -0.0017386 0.01181 0.0019766 0.0074659 -0.0026713 -0.0042232 0.010076 -0.0048828 0.0047216 -0.013067 -0.0082093 0.0072137 0.00061707 -0.00062738 0.0019263 0.010401 -0.0088019 0.011014 0.00065633 -0.0043146 0.00468 0.013472 0.00015919 0.0036161 -0.0029716 0.0084496 0.0074835 -0.0073917 -0.0018681 0.00818 -0.0081886 0.012576 0.0056843 -0.0012163 -0.011552 0.001417 0.0044831 -0.0061779 0.0034951 
要 -0.0067447 -0.0058686 -0.0025331 0.00091603 0.010815 0.010438 0.0090328 0.00054405 0.0036169 0.010826 -0.0043708 0.0058274 -0.0067014 -0.00053768 -0.010761 -0.0091666 0.00052425 -0.0095254 0.0019562 -0.0060745 -0.0081904 0.010188 -0.0046535 -0.0043975 0.0056063 0.00048293 0.0072231 -0.0011393 0.0098861 0.010814 -0.0030716 0.0011457 0.0077489 0.0061651 -0.0052788 -0.00095794 0.00012931 0.0053172 0.00023771 -0.0089012 -1.5482e-05 0.0087507 0.0060858 -0.0044638 0.0053715 -0.007193 0.0013306 -0.0052873 -0.0040027 0.010248 -0.0090667 -0.0013616 -0.010219 -0.0050403 -0.0088825 -0.0012578 0.0037588 -0.0070838 -0.00081304 -0.0046673 0.0078007 0.0093483 0.0052419 0.0036047 -0.0048925 0.0019764 -0.0064743 -0.0033748 -0.0077695 0.0046783 -0.0092428 0.0097606 -0.0097962 0.0055013 -0.0018491 -0.0062625 0.0026998 0.0024537 0.0047893 0.0017673 -0.0081281 0.0067789 0.0097802 0.0038766 -0.0034584 -0.00084418 -0.0068218 0.0069025 0.0067997 0.0061409 -0.0071545 0.00067667 -0.0018786 -0.0003191 -0.00014121 -0.0056737 0.0097284 0.011158 -0.0022671 -0.0061825 
蛋 -0.0090315 0.0065243 0.0096143 -0.0090329 -0.0047842 -0.0074586 0.00091952 0.00033267 -0.0031002 -0.003257 0.0093132 0.0048213 0.0092153 -0.0087012 0.0011455 -0.0089451 0.0062558 0.0095421 -0.0053414 -0.0021593 0.0024175 0.0055236 0.0085905 -0.0096749 0.0067919 0.0079535 -0.0062757 0.00097872 -0.0034624 -0.0017263 -0.00097677 -0.0066255 -0.005155 0.0019891 -0.0063697 -0.0070645 0.0033981 0.0059091 -0.0070538 -0.00072165 -0.0046644 0.010244 0.0040674 0.0072761 -0.0086088 -0.0063351 -0.0098515 -0.0014986 -0.0026298 -0.0071133 -0.0055344 -0.00031162 0.0035601 -0.0055872 -0.0063286 -0.0022478 -0.0071507 0.0044858 -0.0003197 -0.0024144 -0.010388 0.0098075 -0.0047541 0.0035189 0.0088043 0.001904 0.007712 -0.0031923 -0.0038334 0.0039068 -0.0015055 -0.0016373 0.0022634 0.0049957 -0.009302 0.0033641 -0.0093537 0.00077962 0.0089288 -0.0027044 -0.00048718 0.0038474 0.0062716 0.0077171 0.0046333 -0.0039384 -0.0070345 -0.0050908 -0.0060351 -0.0056737 0.0019846 0.0051822 0.0062898 -0.0076602 -0.0024923 -0.0029132 -0.0038486 0.0032958 0.006248 0.0053389 
有 -0.0012501 -0.0015733 0.0021223 0.0023774 0.0082341 0.0075709 0.00013692 -0.010353 -0.0019237 0.0098158 0.0010748 0.0034587 0.0038201 0.0043604 0.0068228 0.0010627 -0.00068675 0.0017937 -0.0053021 -0.0090715 0.0075019 -0.0041978 0.0015583 -0.0072688 0.0016298 -0.0085168 -0.0069252 -0.011829 0.0096281 0.01181 -0.012557 -0.0053749 -0.004326 -0.007676 -0.0049966 0.0058927 0.0023203 -0.0037084 -0.0087801 0.0019462 0.0091444 -0.003441 -0.005393 0.0054329 -0.0006548 -0.0027565 0.0047516 -0.011987 -0.012041 0.0030508 -0.00093819 0.010401 -0.0074719 0.0054334 -0.0080944 -0.0082077 -0.0071246 0.011265 0.01092 0.01162 -0.011041 0.0078422 0.0078242 0.0031733 0.0037512 0.0047456 0.0050225 0.009533 0.0066375 0.010655 -0.0054696 0.0010304 0.0043406 -0.0044594 -0.011628 0.0067296 0.0039986 -0.007643 -0.0052963 -0.0066186 0.0070376 0.01142 0.012132 0.0048276 -0.0059822 0.00051869 -0.0051742 -0.00052175 0.0016218 -0.0084806 0.011378 0.0043442 0.0071318 -0.012364 -0.0095509 0.00011234 0.009059 -0.00073102 0.0070908 -0.011337 
不 0.0084687 -0.0019999 -0.0070763 -0.0051904 -0.0017155 -0.0063968 -0.002057 0.0094408 0.0068656 -0.0032931 -0.0065146 -0.00042769 0.0070124 -0.0028062 0.0030006 -0.0014522 -0.0021449 0.0051889 0.0060518 0.0085925 0.00035329 0.0097387 -0.0058258 -0.0038699 0.00097789 0.0078609 -0.005768 -0.00071503 0.0060602 0.006796 -0.0045376 0.0085845 -0.007542 0.0041333 0.0050877 -0.0054458 -0.0067974 -0.0078823 0.0076386 0.0028772 0.0086579 0.0089652 -0.00016789 0.0017181 -0.0070919 0.0045966 0.0077886 -0.0026396 -0.0096721 -0.004842 0.0061323 0.005713 -0.00097191 0.0087755 -0.0018581 0.0077045 0.0021923 -0.0037318 -0.0014805 0.0046472 0.0017423 -2.3313e-05 -0.0035621 -0.0064045 -0.00083677 -0.0044038 0.0068925 -0.00098634 0.0046255 0.0069658 -0.0099537 -0.005724 0.0013553 -0.0066083 -0.0021299 -0.0054358 -2.0921e-05 0.0028236 0.004553 0.00038824 -0.0084982 0.0030032 0.0037522 -0.00858 -0.006878 0.0020289 0.0007734 -0.0051341 -0.0016773 -0.0040793 0.0091504 0.0026923 0.00099558 0.0037279 -0.00017589 0.0080064 0.0047809 0.0096326 0.0064038 -0.0080768 
们 0.00011382 0.0053744 0.0077577 0.0051095 0.011477 0.0021218 -0.00015751 0.0072601 -0.0076993 -0.0075272 0.0002059 -0.0055055 0.0015957 0.0045328 -0.0074386 -0.0046429 0.00037362 0.0040548 -0.001602 0.0012818 -0.0041684 0.0070622 0.001556 -0.00045254 0.010146 0.0085938 0.005412 -0.010728 0.00536 0.0056506 -0.0018276 -0.006307 -0.0060033 0.0017862 0.0075825 0.0014341 0.0027614 -0.0026915 -0.0063875 0.0082804 0.0093693 -0.0013214 -0.0039578 -0.0077293 0.0028366 0.0030708 0.0091081 0.0023052 0.0053215 0.0074459 0.0033266 -0.0071051 -0.0094714 -0.00047268 0.0011566 0.0064308 -0.0088941 0.01062 0.0069786 0.0025086 -0.0055413 -0.00074697 0.0092248 0.011154 0.004754 -0.0099084 -0.0024796 0.0098032 -0.0016667 -0.0013313 -0.0072155 0.0061087 0.0037894 0.00094604 0.008382 0.0066144 -0.0040377 0.0054377 -0.008682 0.0079475 0.0015589 0.0033611 -0.00149 -0.0021303 0.0074325 0.0039842 -0.0043377 -0.007883 -0.0069599 0.004413 -0.001871 -0.00049882 -0.0053962 0.0055876 -0.005227 -0.0059331 -0.0067302 -0.0081563 0.0035636 -0.0043638 
那 -0.0086487 0.0040275 0.00049629 0.0031786 0.00096666 -0.0010882 0.0036146 0.0053162 -0.0032058 0.0087195 0.0047232 0.0012385 0.0096855 0.00065251 0.0011091 0.0070392 -0.00047562 -0.0091163 -0.005623 -0.0069395 0.0094396 0.0068572 0.0073413 -0.0063438 0.0057315 0.003002 -0.0071155 -0.0039548 -0.008523 0.01069 -0.0011688 0.0024593 -0.0064458 -0.0023269 -0.0074542 0.0045416 -0.0066106 -0.0086859 0.0068163 -0.0071624 -0.0061034 0.0033917 0.0069142 -0.0016547 0.0024031 0.0057611 -0.00022114 -0.0078755 -0.010055 -0.0061793 -0.0088323 0.0084613 -0.0061567 1.9647e-05 0.0041656 0.0057523 -0.0070333 -0.0039611 -0.0073057 0.010494 -0.0078346 0.0011885 -0.0029063 0.0047781 0.0077518 -0.003016 -0.0044999 -0.0090004 -0.0049153 0.0097267 -0.0076371 -0.0077758 -0.010347 0.0070203 0.0033337 0.0019751 0.0029589 -0.00019927 0.0011029 -0.0035491 -0.0098422 -0.0023956 0.011075 -0.00461 0.0050477 0.0013443 -0.0095537 -0.0055636 -0.0063432 0.0078646 -0.0001543 0.0070009 0.011472 -0.011119 -0.003467 -0.0038498 0.0031591 -0.0061684 -0.0070683 -0.0050805 
能 0.0064698 0.0023023 0.0029683 0.010234 0.0042545 -0.0040884 -0.01081 0.0016773 -0.010732 0.0080113 5.1918e-05 -0.0023266 -0.0091091 0.00037563 0.0021317 0.00099666 -0.0085499 -0.00018872 -0.0070104 -0.0064766 0.0071584 -0.0032818 0.0069491 -0.0056974 -0.0047052 0.0047078 0.0031423 -5.5354e-05 0.00090206 -0.0012151 0.002417 0.0080709 -0.0081887 -0.0082943 -0.0037665 0.0075533 -0.0015537 -0.0017169 0.0012882 0.005863 0.0061409 0.0071879 0.0010979 -0.0065185 0.0021998 0.0063998 -0.0053553 0.0010302 0.0029984 0.0087264 -0.0039399 -0.012187 -0.0041271 0.0001429 0.0035288 0.0067544 0.0042334 0.0018285 -0.0016819 -0.0012242 -0.001765 0.0044001 0.0032087 -0.0071078 0.0076125 -0.0062434 0.01171 -0.0089991 -0.00058221 -0.0083379 0.0077092 0.0054385 -0.0050298 -0.00060137 0.0061449 -0.0025596 -0.0027066 0.0027114 0.007159 -0.00026536 0.0013812 0.0044235 -0.013005 -0.007833 -0.0062013 0.0077254 -0.010164 0.0028465 0.00068945 0.0096464 -0.010852 0.0016035 -0.0077765 -0.0011265 0.0016492 0.0031007 -0.00028024 -0.010025 -0.0064827 -0.00054363 
日 0.0053815 0.010332 0.0037684 -0.0066316 0.0091616 -0.0027619 0.0089976 0.0050483 0.010817 0.0017695 -0.0026378 -0.0041507 -0.0023 0.00069798 -0.0082269 -0.0087761 -0.0020158 -0.0043295 0.0091191 -0.010547 -0.0064859 -0.0010812 -0.0067445 -0.0089085 0.0093618 -0.0034534 -0.003061 -0.0004042 0.00093485 -0.0050832 0.0017826 -0.010469 -0.0013235 0.0082593 0.0049656 -0.00052693 -0.0052795 0.00043994 0.0014905 0.0041287 0.0026523 -0.0016934 -0.0060996 0.0044879 -0.0057967 -0.0066591 -0.0048117 0.0036187 -0.0069842 0.0028149 -0.0032143 0.0095562 0.0074676 0.0057493 -0.0091431 0.0043552 0.008232 -0.0074677 0.0095409 0.0044338 0.0030385 0.0076271 0.0020944 0.0087303 0.0050214 0.0054947 0.0057288 0.0089046 0.0065224 0.01166 -0.0088768 0.00035802 0.0048498 0.0091799 0.0012102 -0.0025385 0.0017334 0.0014976 0.0067395 -0.0087035 -0.0027081 -0.0061821 0.012746 -0.0099707 -0.0062888 -0.008976 0.0031123 -0.0014218 -0.010136 -0.0045524 -0.0033686 0.0063223 -0.0063591 -0.00053123 0.0080044 0.0064994 -0.0060061 0.008569 -0.0056761 -0.0051738 
生 -0.0034515 -0.0015536 0.007276 0.0078014 0.0030515 0.011582 0.00038142 0.0041112 0.0025303 -0.0016795 0.0084083 -0.0028624 -0.0083525 -0.0029344 -0.011506 -0.0066477 -0.0032663 -0.010138 0.0079558 -0.0040197 0.006183 -0.0030628 0.0099522 -0.0058694 0.0081674 -0.010613 -0.0009187 0.0011681 -0.0085002 -0.00194 -0.010422 -0.0044905 -0.0054008 0.0087365 0.0027673 -0.0062207 0.0014909 0.0046243 0.0077626 -0.0015382 -0.0074467 -0.00079111 0.0040475 -0.0041787 -0.00055391 -0.0043352 0.0089228 -0.010646 0.006464 0.0058097 -0.0005783 0.011834 0.003082 -0.0006908 -0.0067395 0.0017913 0.0088507 0.0055814 0.0030351 0.011671 -0.010565 -0.0076276 0.011472 0.0091198 0.00753 -0.007935 0.0018557 0.0063755 -0.0027379 0.011912 -0.0060585 0.0056415 -0.0071856 0.0081103 -0.0028765 0.0064917 0.00048577 -0.008796 -0.0032463 0.0035903 -0.0043298 0.0034107 0.0094346 0.0087538 -0.0024344 -0.0084149 0.0089773 -0.00355 -0.0063712 -0.0030663 0.0061632 -0.008323 0.0045452 0.0067484 0.0088975 0.0053793 -0.0062851 0.0079591 0.007338 0.0073364 
： -0.0011707 -0.0039648 -0.0017749 -0.0075854 0.0081462 0.0060345 0.0047466 0.0024953 -0.00035457 0.0017932 -0.00087295 -0.0050302 0.0082146 0.0057766 -0.0041831 -0.0020422 -0.0024339 0.0096049 0.0072189 -0.0032367 -0.0070621 -0.0015771 0.0013136 0.0077798 -0.0018334 0.0072392 0.0042855 0.0014132 -0.0041759 -0.007401 -0.0065216 -0.0042331 0.0070122 -0.0092231 -0.0071628 -0.0063966 -0.0039765 -0.0097486 0.0027151 -0.003537 -0.0049233 -0.0035386 0.0021827 -0.0046783 -0.0085609 2.5155e-05 0.0071059 -0.0071958 0.0063258 -0.0069781 0.0033628 -0.0076958 0.004978 -0.005923 -0.0042919 -0.0014653 -0.0056643 0.0079089 0.00020986 -0.00049193 0.0038545 0.0059174 -0.0027411 0.0032155 -0.0011484 0.00036139 0.0054075 -0.0025319 -0.00087756 -0.0023388 -0.00030951 -0.0082665 0.0017275 -0.0023798 0.0059285 0.0047373 0.002856 0.0090333 0.0093403 0.0061297 -0.0042291 0.0018176 -0.0011911 0.005137 -0.0037334 -0.0063905 -0.0031168 0.0087041 -0.0031173 0.004463 0.0027277 -0.0053352 0.00089729 0.0064772 0.00020166 0.0064453 -0.0031472 0.00055266 0.0070713 -0.00058422 
配 0.0095095 -0.0083248 0.0059261 -0.0091087 -0.0085684 -0.00029831 -0.011012 0.0052335 -0.0028682 -0.0013105 0.0033359 0.0071988 0.009164 -0.0064504 -0.0078601 -0.0025226 -0.0086022 0.0014 -0.0056148 -0.0088472 0.0064545 0.00013759 -0.0074984 0.0098718 0.0085714 0.0019089 -0.0027835 -0.00018354 -0.00067137 -0.0037039 0.0098585 0.0023222 0.0013441 0.0015451 -0.0010909 -0.003702 -0.00044565 -0.0064706 0.009515 0.0074605 0.0016946 -0.0030483 0.0089496 -0.011432 -0.0044834 -0.006923 0.0076372 -0.0021305 -0.0019267 0.0012469 0.011755 -0.0094164 0.0012133 -0.0044432 0.0063426 -0.0073945 -0.00023559 -0.0020891 -0.0024677 -0.010755 -0.0031491 -0.0029676 -0.010477 -0.0046866 0.0067257 0.0099185 -0.0011373 0.0042465 -0.0068689 -0.0010815 -0.0077893 -0.0051028 0.0071951 -0.0016131 0.0043646 -0.0066011 0.00036728 0.0090668 0.0060227 0.0022745 0.0073808 0.0042887 0.0010328 0.0074746 -0.0040641 0.011023 0.0040596 -0.00014443 -0.0035601 0.0091745 0.0068431 0.0087405 0.0041054 -0.0061376 -0.0023099 -8.2891e-05 0.00023608 0.0061017 0.0052728 -0.0034521 
这 -0.003286 0.0072316 -0.0037422 -0.0033055 0.010791 -0.0051502 -0.003215 0.00021723 -0.0061715 -0.0014503 -0.0057707 0.0035667 0.0074274 -0.0074745 -0.010678 -0.0096255 0.0058066 -0.0028638 -0.0048074 0.0032143 0.0085933 0.0077059 -0.0041937 0.0074545 -0.0035695 0.005365 0.010523 -5.2609e-06 -0.0080861 -0.0038095 -0.0078743 0.00036349 0.0064776 -0.0013305 0.0054273 -0.00043338 0.00011737 -0.0079539 -6.2025e-06 0.0016357 0.0038619 0.0071917 0.0013231 0.007303 -0.0069176 0.0053647 -0.0039819 0.0040579 -0.011023 0.0040218 0.002448 0.0099256 -0.0030831 -0.0091452 0.0012689 0.00018079 0.00010025 -0.0018727 5.7412e-05 0.0030039 0.0022716 0.0059469 0.008083 0.0095155 0.0047736 0.0014225 -0.0019768 0.0021039 -0.0069049 0.0089201 -0.0079834 0.00089122 0.0036327 -0.007745 0.0082562 0.0040365 0.0031764 -0.0032657 0.0073392 -0.010737 0.0050651 0.003448 0.0093423 0.0077667 0.0082887 -0.0051643 -0.0034836 0.0048995 -0.0080648 0.0021859 -0.0037326 0.0010158 0.010317 0.0040135 -0.0064672 0.0020389 -0.0020881 -0.0014392 0.0069159 -0.0099682 
单 0.0056966 0.0066272 -0.0066636 0.0054275 0.0082584 0.0081644 0.010342 0.0012725 0.0033566 -0.007628 -0.0037635 0.0093751 0.00062133 0.011272 0.0037242 -0.0014906 -0.0089853 -0.0027672 -0.0083786 -0.0073509 0.0019541 -0.0044869 -0.0054906 -0.0078546 0.0096691 -0.00035647 -0.0080572 -0.0050743 0.0037089 -0.001595 -0.0037938 0.0069887 0.0082359 0.0068778 0.0019135 -0.00039577 -0.0010251 -0.0038706 0.0069498 -0.0054542 0.0099381 0.0015919 0.0052961 0.0036046 -0.0033324 -0.0083117 0.0062571 0.0066958 0.0054745 -0.0038062 -0.0010507 0.0052546 0.0050586 0.003586 -0.0087724 0.0029529 0.0088949 -0.0050729 -0.005344 0.00036198 0.0038277 -0.0034178 0.011237 -0.0054143 0.007459 -0.0077576 -0.0025328 0.0096264 0.0023075 0.0034091 0.002173 -0.0087347 -0.0016067 -0.0046439 -0.0045018 -0.0064388 -0.0063002 -0.0032815 -0.0067925 -0.0059904 0.001535 0.0081753 0.0085616 -0.0020548 -0.0078507 0.0053646 -0.0085462 0.00093642 0.0031885 -0.0051289 0.0068543 0.006995 0.0082088 -0.0064808 -0.0019 -0.010114 0.0032898 0.011091 -0.00040672 0.0051019 
没 -0.00087384 0.0068541 0.002183 -0.0050643 0.0094456 0.0058184 0.0035385 -0.0028655 -0.0018118 0.0041682 -0.00064916 -0.0078765 3.4421e-06 -0.0055199 -0.006445 -0.0082279 0.0050078 -0.010035 0.0016964 -0.0097556 0.0036749 0.0010277 0.0084195 0.002387 -0.0037849 0.0045342 0.0055035 -0.0088412 0.0081041 0.0056477 -0.00067372 0.0011613 -0.011659 0.0031436 -0.0050918 0.0076368 0.0050731 0.0073117 -0.010962 -0.0047572 -0.00035341 -0.00067215 -0.0035605 0.0045495 0.0049312 0.0019428 0.0077427 0.0019209 0.0023494 0.0025125 0.0011356 0.0044506 -0.0061795 -0.0020926 0.0085755 0.0060054 -0.0077635 -0.0059531 0.007218 0.00041789 0.0045364 0.0055176 0.0027469 0.008598 0.0060806 -0.0052927 -0.012773 0.0033729 0.0046823 0.00061697 -0.0053296 0.0091326 -0.010064 0.0054666 -0.011872 -0.0039212 -0.00465 0.0048758 -0.0084606 0.0015668 -0.012098 -0.0014972 0.0091887 0.0076145 -0.0018248 -0.0087615 -0.0044616 0.0028779 0.001959 -0.0022999 -0.0042194 0.0070119 0.0088612 -0.0038728 -0.0056038 -0.011318 0.0084096 -0.0052983 -0.0091316 -0.0060351 
还 0.0036711 0.0086104 -0.0083953 0.0065716 0.0010579 0.01108 0.0097871 -0.008212 -0.00025437 0.0079129 -0.0085032 0.0059932 0.0062833 -0.0038573 -0.0045129 0.00019248 -0.0024194 -0.0029185 0.011173 -0.004982 0.0021207 -0.0047206 0.0048009 0.0038851 0.0075176 -0.010734 0.0040905 -0.0059578 0.0018431 0.0060354 -0.0068817 0.0058651 -0.012099 -0.0053777 -0.0068367 -0.0014894 -0.00054098 0.0073204 -0.0061543 0.0087031 -0.0045043 0.0091786 0.0019805 -0.0036533 0.0017368 0.0037753 0.0070765 -0.012226 0.0022635 0.0057403 -0.0082786 0.011009 -0.010945 -0.0045214 0.0095454 -0.0059677 0.00079854 0.0076536 -0.0036562 -0.0057493 -0.010098 0.0094568 -0.0019357 0.0027804 -0.0018529 -0.00087176 0.0064824 -0.0037402 0.0091951 0.0062288 -0.011378 0.0080919 -0.0042207 -0.00053499 -0.0078776 -0.007588 0.0023396 -0.0023097 0.0037784 0.0019685 -0.0094695 0.0053954 -0.0042561 0.0047824 0.0091579 -0.0093889 -4.2843e-05 0.0023915 -0.0042765 0.0035709 -0.0040545 -0.0020234 0.0077382 -0.012052 -0.0094068 0.00625 0.0086247 0.011048 -0.0057722 0.0050399 
间 0.0045453 -0.006331 -0.0016416 0.0078186 -0.00092896 -0.0030488 0.0065342 0.001864 -0.0020851 -0.0078192 0.0074767 0.0036876 -0.0047604 0.0050952 -0.0090722 -0.0098284 -0.0029848 0.00059815 0.0020806 -0.0017971 0.002926 0.0081362 -0.0029385 -0.010226 0.0041451 0.0058558 -0.0056752 -0.0082273 -0.003932 0.0077672 0.0046044 -0.010164 0.00073736 0.001871 0.0053462 0.010465 -0.0028187 5.3274e-05 -0.0077676 -0.0075905 0.0096677 -0.0077129 -0.0089007 0.010629 0.00014559 0.0028671 -0.0055189 0.0082972 -0.011005 -0.00523 0.002443 0.0092246 0.0081424 -0.0053865 -0.0066915 -0.006274 -0.0092642 -0.0042395 0.0019664 0.011038 -0.0016568 0.0065246 0.010778 0.0077467 -0.0043017 -0.0080628 0.0017909 0.010706 0.0017771 0.0091257 -0.0055193 0.010268 0.00025903 -0.0030691 0.0048466 0.0069695 -0.0018745 -0.0066385 0.0078023 -0.004694 0.0033927 -0.0050751 -0.0045638 0.0034514 0.0061317 -0.007329 0.0093354 0.0022231 -0.0071467 0.0068214 0.0088454 0.008502 -0.0083821 -0.0076703 0.0078558 -0.0047959 -0.0031564 -0.0074809 0.0014674 0.00085397 
大 0.00014303 0.010625 0.0031932 0.0028287 -0.0015464 -0.006545 0.0048262 -0.0092999 0.0019004 -0.0092761 -0.0098902 0.0055493 0.0051655 -0.0030542 -0.0019685 0.0055231 -0.0044417 -0.0029579 0.0059511 0.0022942 0.0039281 0.0028372 -0.0034477 0.00072932 0.0038952 0.0064097 -0.0059918 -0.004506 0.0085051 0.0056709 0.0060868 0.0053451 -0.005619 0.0040589 0.0032848 -0.0058873 0.0018578 0.0032549 -0.0063228 -0.0026435 -0.00066168 0.0063725 0.0099013 0.0068468 0.000791 0.0023938 0.0064315 -0.0014162 -0.0033366 0.0051052 0.0090179 -0.00097077 0.00034073 -0.0071842 -0.0096364 -0.0069667 -0.00087109 -0.0033933 0.0094897 -5.4791e-06 -0.0079701 0.0095437 0.006403 0.0076845 0.0041901 0.0084975 -0.0010834 0.0060157 0.0071876 -0.00033591 0.0052134 0.0027942 0.0011937 -0.0062092 -0.00097433 -0.0013354 0.0098774 -0.0025287 -0.001294 0.00059674 0.0033543 -0.0091244 0.010172 0.0018582 0.0023493 0.0037175 0.0088524 0.0020012 0.0047028 -0.0039531 -0.003404 0.0043186 0.0097921 0.0057316 0.0059048 -0.00090894 0.0023057 -0.0020844 0.0075762 0.0050281 
小 -0.0063867 0.0026855 0.0012838 0.0082472 0.0032447 0.0073999 -0.008664 -0.0089735 0.0076396 0.006198 0.0073206 0.0072919 0.0093701 0.010638 0.0026857 -0.010308 -0.0010978 0.0054179 0.0064455 -0.0032975 0.0073014 -0.0062507 0.0016747 0.00082399 -0.00089247 -0.0093944 -0.0072468 0.0048946 0.0052851 -0.0079806 -0.0032337 0.0016184 -0.0071734 -0.0007824 -0.010395 0.010169 0.0074816 8.0752e-05 -0.0013552 -0.0096864 0.0052831 0.00060908 -0.0088617 -0.0033445 -0.005706 0.0068747 0.0023892 -0.0085645 -0.0032273 0.0048918 -0.0057361 -0.0024376 8.8845e-05 -0.0027594 0.0005387 -0.0038484 0.0068714 0.0018411 0.0030628 -0.00522 0.0062217 0.0030343 -0.0018811 0.0049108 0.0032741 -0.0069424 0.0044995 -0.0044807 -0.0051203 -0.003225 -0.0090907 0.00331 -0.0054628 -0.0035429 0.0072789 -0.0072334 0.005118 0.0021618 -0.0016361 -0.0019461 -0.010085 -0.0053772 0.009723 0.0085184 -0.003284 0.0065586 0.0056025 0.0099587 -0.0030793 0.007361 -0.0053867 0.0063194 0.0025673 -7.5369e-05 0.00053396 -0.010005 -0.0023009 0.0088019 0.0065398 0.0072101 
前 0.0095644 -0.0019112 -0.0020906 -0.0096876 0.0042709 -8.0915e-05 0.0015303 -0.00209 0.0072971 -0.0080717 0.0085791 -0.0064158 0.0068729 0.0036521 8.114e-05 -0.0037559 -0.0026924 -0.0022512 -0.0047285 0.0053811 0.0065215 0.0083945 -0.0067941 -0.0083625 0.0017433 -0.0079641 -0.0033995 0.0079294 -0.00098361 0.0041822 -0.0063517 -0.002678 0.0037781 0.008228 0.0065053 0.0066019 -0.0053254 -0.0034289 0.0028258 -0.0040686 0.0026267 0.0020413 -0.00022915 0.0032645 -0.0030125 -0.0029459 0.0074722 -0.00997 0.0012225 -0.0085384 -0.0042398 -0.0074621 0.0057279 -0.0046104 -0.00352 -0.0052922 0.0021913 -0.0077292 -0.0078658 0.004985 0.0051397 -0.00021688 0.0012703 -0.002954 0.0015317 -0.0094069 -0.0078656 0.0090564 -0.0014424 -0.0042385 -0.0090984 0.0092483 -0.008447 0.0057363 -0.0080449 -0.0017252 -0.0050824 0.0090865 0.008212 0.0087511 0.0083888 -9.8347e-05 0.008959 0.0084075 -0.00054997 0.0024524 0.0065195 -0.0035861 -0.0078847 0.0029971 -0.0040941 -0.00089205 0.0042876 -0.0014605 -0.00031405 0.0016662 0.0067859 0.0010942 0.00078609 -0.0028985 
请 0.0038667 -0.0060483 0.004545 0.00016284 0.011239 0.012824 0.0020592 0.0060769 0.0076411 0.0018828 -9.6493e-05 0.0084358 0.010165 -0.0068497 -0.0094609 -0.0035753 -0.0059386 0.0026932 -0.0018635 0.0024076 0.0039393 -0.0011764 0.0095446 0.0035962 0.0092555 0.0076641 0.002441 -0.0027455 -0.00039178 0.00632 -0.0096776 -0.011937 0.00077703 0.0020286 0.00019767 0.0021387 -0.0047852 -0.0067876 -0.0096331 -0.011014 0.0072585 0.0060603 0.0093061 0.006735 -0.0056081 -0.0085231 -0.0040177 0.004387 -0.00069849 0.0032056 0.00047055 0.0020972 0.0032839 0.0086572 -0.0031526 -0.0014498 -0.0082262 0.009282 -0.0010064 -0.0060571 -0.0043811 0.0070827 -0.0052057 0.011021 0.0050296 0.0095645 -0.0025079 -0.0071609 0.00090589 -0.0059274 -0.0076102 0.0058801 0.0015814 0.0013052 -0.0066552 0.0041751 0.0086372 -0.0023499 0.0063898 -0.010091 -0.01104 0.0032446 -0.0047487 -4.0232e-05 0.0046232 -0.0053687 0.0047565 0.0091449 0.0010402 0.0094735 -0.0044215 -0.0013464 -0.0017895 -0.0081185 -0.0056324 -0.0044679 0.0067762 0.0085994 0.004133 -0.0042579 
钟 0.0078703 0.0038252 0.00028801 0.00022906 -0.0077342 0.0074077 -0.0071887 -0.0012757 0.0068578 -0.008507 0.0051526 -0.001193 0.0067901 -0.0071047 -0.0052684 1.2812e-05 -0.0058309 0.0075765 0.0032991 0.0057233 0.0022491 -0.0074741 0.0059086 0.0081618 -0.0070982 0.0020322 0.006355 0.0027379 0.0094756 -0.0012897 -0.0054195 0.00019107 0.0038737 0.005587 0.0026249 0.0065685 0.0026647 -0.0050799 0.0068648 -0.0047602 -0.0091646 -0.00087688 0.0070266 0.0021297 0.0038608 -0.005209 -0.0027708 0.0017136 -0.0055056 -0.006326 -0.0031227 -0.0021303 -0.005677 0.0038532 -0.0085007 -0.0054964 0.0091506 0.0064156 0.0076968 0.010359 -0.00921 0.0029964 0.0017354 0.0096022 0.0059498 0.0064072 -0.0058067 0.001689 0.0039585 0.0096016 0.002866 -0.0060088 -0.0097396 0.0012942 -0.006317 -0.0040605 0.0086979 -0.002333 -0.0038724 0.0053691 -0.010383 0.0030535 -0.0021506 0.004647 -0.0083324 -0.0041936 0.0034357 0.0030651 -0.0033415 -0.0063389 -0.0080828 0.0093505 0.008269 0.0085272 -0.0066811 0.0064618 0.0061365 0.00039514 -0.00094647 -0.0091651 
快 0.0057206 0.010022 -0.0043775 -0.0077215 0.0062982 0.0035756 -0.0019624 0.0086113 -2.7405e-06 -0.0078462 0.0043816 0.0095609 0.0059349 0.0033723 -0.010121 -0.0062236 -0.0026909 -0.010024 -0.0064526 -0.005446 0.0031583 0.010008 -0.0019182 -0.01019 0.0029329 0.0049267 -0.0088917 0.0011638 -0.0067638 -0.0040263 -0.0031406 0.0070498 -0.0027996 0.0071108 -0.0053717 0.0058332 0.0048992 0.0012275 0.0092932 -0.0062718 0.0096922 -0.0069491 0.010121 0.0010713 -0.00063159 -0.0054661 0.0055927 -0.0050512 -0.0094013 0.0019185 0.0074336 0.0093001 -0.00073502 0.0097242 0.00065877 -0.0099973 -0.0044527 -0.0014197 -0.0075946 0.0060646 0.0033821 0.010728 -0.0012641 0.0014197 0.0032511 -0.0076961 0.0031026 0.0040795 0.0004352 -0.0069206 -0.0040023 0.0073263 0.0031164 -0.0051841 -0.0065965 -0.004304 -0.0014739 -0.0071703 0.00032333 -0.0021074 -0.0075031 0.0012433 0.0071519 8.2093e-05 -0.0086661 -0.011162 0.0057055 0.0010027 0.0047187 0.0037135 -0.0072139 -0.00022972 0.0019585 -0.0007264 -0.0048333 0.0031645 -0.0094163 0.0040674 4.267e-05 0.001045 
给 -0.00046013 -0.0033186 0.0019839 -0.0074898 0.0047915 0.010211 0.00095311 -9.2718e-05 -0.0032343 -0.0059537 0.0069861 -0.0044411 -0.0062981 -0.0043442 0.0082979 -0.010318 0.0013999 0.0010142 0.0087156 -0.0068466 -0.0028282 0.0078912 0.008895 0.0054919 -0.0079166 0.0062826 0.00075955 0.0020233 0.0081566 0.0050977 -0.001214 -0.0046275 -0.00070501 0.0010961 -0.0080126 0.0088916 0.0065543 0.0069253 -0.0072337 0.0062064 -0.00074678 0.010661 -0.0092138 -0.00088814 0.00083295 0.0035788 0.0059862 0.0072049 -0.0094197 -0.0036044 0.0049558 0.00030611 0.0087082 0.0031017 0.0046036 0.0068272 0.007192 0.0093447 -0.0055016 0.0060066 -0.0098675 0.0019097 -0.0087104 0.0033349 0.0063471 -9.594e-05 0.0085981 -0.0038018 -0.0059477 -0.0071186 0.0077714 0.0097355 0.0039699 0.0091235 -0.0031523 -0.0094339 -0.003902 0.0085268 0.0084191 0.0012377 -0.0043492 0.0010614 -0.0042123 0.0048341 0.0044823 -0.010189 0.0099107 0.0015789 0.0058655 0.0023901 0.0054753 -0.0028394 -0.0063871 -0.0088677 0.0011806 -0.004982 -0.0001925 -0.0082131 -0.0031088 -0.002552 
放 -0.0033993 0.0050228 -0.0029346 0.0018632 -0.0085763 0.0010112 0.010449 -0.0033271 0.00075448 -0.0067313 -0.0047889 -0.0084152 -0.0011264 -0.0071717 0.0042606 0.0032983 0.00062363 0.00031292 0.0055868 -0.010159 -0.0051677 0.0061323 -0.0015069 0.0073431 -0.0016725 0.0086464 -0.0051803 -0.0062327 0.0039357 -0.0066383 -0.0020079 -0.0071535 0.0024172 0.0091634 -0.0088027 0.0083448 0.0074324 -0.0084437 -0.0083135 0.0038017 -0.0011644 0.0036351 -0.0060303 0.0015415 -0.0091568 -0.0054723 -0.0096534 0.0026044 0.0011035 -0.0040013 0.0043054 -0.0086734 0.0063648 0.0069528 0.0077129 -0.0094958 0.0078676 0.0077882 -0.0046933 0.0034626 -0.0092497 -0.0072467 -0.0014619 0.0059055 0.0027506 0.0081894 0.0051746 0.0035908 0.0080141 -0.0089611 0.0079656 0.0054275 -0.0035628 -0.0036252 -0.0080113 -0.0056666 -0.0034438 0.0045421 -0.0014415 0.00648 0.0070161 0.0097605 -0.0024317 -0.0047236 -0.0041813 -0.0035457 -0.0069521 -0.0016178 -0.0078592 -0.0097411 0.0055486 0.0050021 -0.0012484 0.00061487 0.00051648 -0.002086 -0.0014874 -0.0085263 -0.004908 0.0050668 
晚 -0.00022402 -0.0050753 -0.0054386 0.0076823 0.0068643 0.0095292 0.0010662 0.0071552 -0.0053909 0.0092239 -0.0030403 -0.003971 0.0087464 -0.0024421 0.0029943 0.0060201 0.0099088 0.0054829 0.005905 0.0072991 0.0056724 0.0028795 -0.0091005 0.0016934 0.0049763 0.0014824 -0.0044197 -0.0057518 0.0022179 0.0075827 -0.0078822 0.0021096 -0.0017833 0.0011202 0.0019313 0.0081177 -0.0036514 0.0051675 0.0042573 0.0010254 0.0035591 0.0014599 0.00083148 -0.0036098 0.0069269 -0.0012699 0.0059496 -0.0035677 -0.0067929 0.0095532 -0.0022345 -0.00033478 0.0032792 0.0077344 -0.0036183 0.0049996 0.0019855 6.213e-05 -0.0025888 0.0028471 -0.0024404 -0.0066728 0.0033579 -0.0058443 -0.0040132 -0.0094184 -0.0064236 -0.0031415 -0.0069892 0.00078281 0.0076385 -0.004448 0.0059599 -0.0083991 0.0040784 0.0078402 0.009982 -0.0038209 0.0088375 -0.0037192 0.0035362 -0.0027945 -0.0027256 0.008013 -0.0041849 0.0022454 0.006716 -0.0025802 0.0090761 0.0096182 -0.006217 0.0056901 -0.0024604 0.0039374 -0.0079028 -0.0099295 -0.0056897 0.0063613 1.7541e-05 0.003755 
就 -0.0027548 -0.0044651 -0.0075855 -0.0062533 -0.0034904 0.0053054 0.0022755 0.0049213 -0.0060418 0.0032815 0.010723 0.00079047 -0.00063372 -0.0045005 0.0071778 -0.0090381 -0.0035035 -0.0082223 -0.0003648 0.0059942 0.0044086 -0.0069774 0.00212 0.0091704 -0.0074378 -0.0082724 -0.0085617 -0.0014848 0.0082877 -0.0075359 -0.0041367 0.010277 -0.0067921 -0.0078553 -0.007584 0.0081359 0.0028008 -0.0071288 -0.0075532 0.007827 0.00071454 9.0868e-06 -0.0010623 -0.0043932 0.0033775 0.0025976 0.0035711 -0.008672 -0.0052631 -0.00035025 0.010176 -0.0054031 -0.0069288 -0.0071422 -0.0099804 -0.0039035 -0.0085584 -0.010491 0.0022694 6.1303e-05 -0.0054624 0.0031171 0.0017989 -0.0026625 -0.009467 0.0067538 -0.0030551 -0.0091125 -0.0054123 -0.0078631 -0.0029435 -0.0041402 0.0094052 0.0077484 0.0039566 0.0088826 -0.0076064 -0.00063618 0.0001546 0.0024834 0.0078811 -0.010847 -0.0021142 0.0031451 -0.010014 -0.0084614 0.0078135 0.0025969 0.0037582 -0.0043788 -0.010268 0.0039839 -0.0014162 0.0084945 0.0034468 0.0039566 0.00033932 0.003782 -0.0017535 0.0012344 
问 -0.0049888 -0.0053358 -0.0010024 -0.00029668 -0.0039948 0.0074597 -0.0030467 -0.0022445 -0.0058334 -0.0073505 -0.0097097 -0.0064879 -0.0078769 0.0051062 -0.00066182 -0.010013 -0.0051484 -0.00049076 -0.0064906 -0.0020608 0.0011552 0.0010412 0.0033631 0.0069719 0.0042765 0.0037748 0.00012692 -0.0075014 0.00026996 0.0038289 0.0021721 -0.00054495 -0.0042484 -0.0046031 9.2479e-05 -0.0066158 -0.0052299 0.0091921 0.0016297 -0.0042716 -0.0014358 -0.002437 -0.0059012 0.010233 -0.0075438 -0.0063908 -0.0060209 -0.01113 -0.0031561 -0.0067392 -0.011236 0.00243 0.0057583 0.0076051 -0.0052621 0.00036 0.00054564 -0.0001864 0.00074649 0.0079911 -0.0035625 0.0084669 -0.0026425 0.0079784 -0.0095945 -0.0013558 -0.00055997 0.0062075 0.01026 0.010653 -0.011312 0.0037898 0.00050919 0.0070277 0.0053029 -0.008544 0.0014626 -0.0077739 0.0072018 -0.0018736 0.0047475 -0.0033148 0.011657 -0.0020625 0.0076923 -0.0041567 -0.0010499 0.0091843 -0.0066701 0.0017433 -0.007199 -0.0091073 0.010163 -0.0018534 0.00098112 0.0014707 0.0084787 -0.007747 0.0087505 0.0011545 
7 -0.0018586 0.0023972 0.0083265 0.0018681 0.0036758 8.9879e-05 0.008371 0.0058297 -0.0048164 -0.0019637 0.0040541 -0.0088589 0.0091592 0.0084815 -0.0010663 -0.0087507 0.0011579 0.0013398 -0.0041325 0.0065522 -0.0056147 -0.0080589 -0.0018996 0.00070694 0.0089449 0.0078907 0.0078542 0.00051686 0.0018804 0.0097348 -0.0035986 0.0048913 -0.0077904 -0.0022606 -0.0095331 -0.0082976 0.0005801 -0.0091763 0.00085979 -0.0051394 -0.006358 0.0060211 -0.0022958 0.0062425 -0.00028656 -0.0077478 0.002345 -0.0098317 0.0093736 0.0087713 0.0065785 -0.0034877 0.0081097 0.0046019 0.0018156 0.0064598 -0.0093672 0.0018585 -0.0079744 -0.0058755 0.0069038 0.0041714 0.001269 -0.0019483 0.0012134 -0.0027315 -0.0071957 0.002779 0.0065486 0.01008 -0.0038945 0.0035577 -0.0070762 -0.0028806 -0.0087346 0.0085529 -0.0027848 -0.0072619 0.005749 -0.0036641 0.0093111 0.0051641 -0.0024717 -0.0066978 0.00023896 -0.0065916 0.00091243 0.0010136 -0.0064403 -0.0046441 -0.0034707 0.0080502 -0.0078596 -0.00089746 0.0085679 -0.0014599 -0.0071082 -0.0054511 -0.0023037 -0.0038166 
订 -0.0036558 0.0014947 0.0028115 -1.3996e-05 0.0039229 -0.0073576 -0.0033497 0.0015514 0.007451 0.0026124 -0.010228 -0.0092712 0.0022638 -0.0067383 -0.010671 0.0019694 0.0092791 0.0083537 0.0084812 0.0015087 -0.0076931 0.003386 0.010198 -0.0092545 3.6587e-05 -0.0062191 -0.0080411 -0.0099392 0.0031969 0.0035804 0.0082358 -0.0016167 0.0073319 -0.0085885 -0.007797 -0.0071541 0.0024005 0.0088945 -0.0013397 0.0058288 -0.0045184 0.0012215 0.0069829 -0.0076198 0.0031271 0.0056822 -0.0030831 -0.0082025 0.0018795 0.0060619 0.0072578 -0.0015687 -0.00070074 -0.0047702 -0.0019713 -0.0047012 -0.0030862 0.0028931 -0.0030143 0.0099617 -0.00089016 0.010841 -0.0010273 0.0049604 -0.0072421 -0.0022596 -0.010723 0.0082155 0.0057653 -0.0034585 -0.0013219 0.0089193 -0.0024398 -0.0013025 -0.0033538 0.0053702 -0.0035935 -0.0011601 0.0093792 0.003646 -0.010905 0.0098768 0.0015169 -0.0044552 0.0077056 -0.0070271 0.0062669 0.0038425 0.0013612 -0.0028315 0.009417 0.0066345 -0.0040377 -0.001064 -0.008244 -0.004007 -0.0091895 -0.0075541 0.0068665 0.0039178 
看 0.0087175 -0.00053082 0.0010524 0.0055001 0.0010853 0.005134 -0.0029679 -0.00080777 8.0022e-05 0.0001261 -0.0079258 0.00066852 0.0023655 -0.0031833 0.003756 0.004215 0.0021712 -0.0045415 0.0037608 0.00017494 -0.0088952 0.00057683 -0.0032252 -0.0065823 0.00034706 -0.0034691 0.006954 -0.011142 0.00047529 0.0061097 -0.0057061 -0.0067088 -0.0063771 -0.007406 0.007411 -0.0047 0.0086305 -0.0056525 -0.0043084 -0.0050231 0.0057969 -0.004346 0.0087444 0.0046287 -0.0095662 -0.00545 -0.0073825 -0.010296 0.0072273 0.0088842 -0.012224 0.0071242 0.0044841 -0.00056557 0.0045035 -0.0012304 -0.0048122 0.0055688 -0.0040685 -0.0017265 0.0021907 -0.0012245 -0.0010378 -0.0027669 0.0092081 0.00731 -0.0016316 -0.0077688 -0.0063846 -0.003763 -0.0062096 0.0049898 0.00045912 -0.0032904 -0.0082771 -0.0050185 -0.0037176 0.0081862 0.0082654 0.0053596 -0.0070029 0.00096465 0.0026222 0.0089058 -0.0022484 -0.0023479 0.0065214 0.0063014 0.00083034 0.0049173 0.0091798 0.0097055 0.0030137 -0.0028335 -0.0096761 0.0041102 -0.0061172 -0.0047693 -0.0044782 -0.00038873 
几 0.0098193 0.00625 0.0036488 0.0033355 -0.0031911 -0.0044112 -0.0015492 0.0056241 -0.0024399 -0.0081976 0.0047047 -0.0031413 -0.003406 -0.0099833 -0.0077447 -0.0032675 0.007676 0.002408 0.0077908 -0.0053792 0.0073138 0.0043314 -0.0044832 0.00041279 0.0055346 -0.0035514 0.0050904 0.0093672 0.0030275 0.0023601 -0.0021587 0.0094282 0.0041705 0.004036 -0.0031041 0.007138 0.0058094 0.00062262 0.0019239 0.0078488 -0.0097179 0.0080148 -0.0024417 0.0027187 -0.008301 0.0062166 -0.00186 0.0096116 0.0027412 0.0028614 0.0022149 0.0073401 -0.0039826 -0.0017089 0.00054142 -0.0010423 -0.0036382 -0.0059838 0.0051606 -0.0044821 0.0073605 0.006613 0.0089415 -0.007714 -0.0041159 -0.00050004 0.0062479 0.005014 -0.0085494 -0.00048985 0.0038603 0.00041029 0.009022 0.0067075 0.006494 0.0058784 -0.0060264 0.0019163 0.006314 -0.0010497 -0.00523 0.0086997 0.0012166 -0.0032047 0.0082897 0.0015788 0.0045349 0.0072719 -0.00048244 0.003023 -0.0096921 -0.0019075 -0.0076254 -0.0030513 0.0062497 -7.2444e-05 0.0093916 -0.0050287 -0.00084252 -0.0079743 
6 -0.0068479 -0.0034307 -0.003954 -0.0068712 -0.0028062 -0.0041361 -0.007959 -0.00082084 0.0080692 0.0025391 0.0067443 -0.0045179 -0.0085126 -0.0011412 0.00901 0.0064282 -0.00048367 0.0083699 0.0036992 -0.0058885 -0.007845 -0.0025295 0.0068705 -0.00047987 0.0095957 -0.010323 0.0080963 0.0043339 -0.0085294 -0.0068546 -0.008446 -0.0028707 -0.008878 -0.0042487 -0.0028272 0.0023853 -0.0092992 -0.0015692 0.0048264 -0.0057668 0.0020452 0.00083887 -0.0092249 -0.0060913 0.0087688 0.0081157 -0.0010587 -0.0096332 -0.00031331 -0.001186 0.0080008 0.0015888 -0.00042421 -0.0038778 0.0076539 -0.0087124 -0.0042771 0.0061805 -0.00095705 0.0089243 0.0055458 0.0049776 0.0019514 -0.0074419 -0.0040364 -0.0023597 0.0075711 -0.00211 0.0048477 0.004898 -0.00038506 -0.0072704 -0.0061296 0.0067165 -0.00867 0.0036633 -0.0074865 0.00884 0.0019846 -0.009234 0.0017064 0.0059564 0.0067767 0.0082659 -0.00049267 -0.010764 0.0084063 0.0080277 0.005419 0.0039749 0.00093289 0.00083798 -0.00014554 -0.01013 0.0087138 0.0036382 -0.00024063 0.0010448 -0.0095981 0.0074107 
吧 -0.0047811 -0.00467 0.00095073 0.0074536 0.0059936 0.0024024 0.0017467 -0.0078464 -0.00014834 -0.00061429 0.0009678 0.0085257 -0.0042457 0.0050217 -0.00099261 0.0010713 -0.0037544 -0.0097549 -0.00026179 0.0042838 -0.0055689 -0.0044764 -0.0074504 -0.0047752 0.0091893 0.0034693 -0.0042472 5.8228e-05 0.00092221 0.0060399 0.00011218 -0.0097021 0.007018 0.0081256 -0.0062259 0.0058014 0.0090226 -0.0079689 -0.0031961 -0.0025347 0.0095526 0.0013587 0.0027158 0.0021891 4.6281e-05 -0.0034464 -0.0059793 0.0033477 -0.0085844 0.0091534 -0.011562 -0.00081128 -0.0017539 0.0080127 -0.0026958 -0.0025222 -0.0028804 -0.0055993 0.0056591 -0.0017748 -0.0056491 -0.0048268 0.0040922 0.0053896 -0.0049279 0.0029067 0.0085661 -0.0024586 -0.0063624 -0.0017963 -0.005444 0.0042193 0.00019672 0.0082359 -0.0029998 0.0020016 -0.0034916 0.00014017 -0.0060893 0.0068794 -0.0036423 0.010466 0.0035256 -0.0042711 0.0057545 0.002706 0.0042508 -0.0090619 -0.0014067 0.0063792 0.00024901 -0.006534 -0.0080412 0.0017525 -0.0016947 -0.0062071 -0.0060454 0.01037 -0.0098381 0.0037615 
4 -0.0071671 0.0028844 0.006968 0.0025233 0.00013465 -0.0042572 -0.0092316 -0.0028247 -0.0001243 0.0056633 0.0055199 0.0033438 0.0095326 -0.0094295 0.0032007 0.0051357 -0.0039337 -0.0055082 -0.0021001 0.002919 0.00050731 0.00087314 -0.0045642 0.0095083 0.0033727 0.0071588 -0.00845 -0.0075601 -0.0075641 0.0096427 0.0074113 0.0063553 -0.006698 -0.0059974 -0.0094398 -0.0095555 -0.0072137 0.0086454 -0.002045 -0.0056024 0.0048177 0.009129 0.0074181 -0.006316 0.0023847 -0.0024254 -0.0014297 0.0064299 -0.0086293 -0.0088152 -0.0093075 0.0023648 -0.010066 -0.0085851 -0.00029819 0.0066918 0.0065683 0.0056843 -0.0086481 0.00032478 0.0048439 0.0089827 -0.0059906 0.0011544 -0.0060456 0.00091492 -0.0015366 0.0087133 -0.0089962 0.0088854 -0.0036589 -0.0097843 -0.0023385 -0.0062553 -0.0024899 0.0019222 -0.00071782 -0.0028448 0.0099165 -0.008205 0.0016104 0.0035409 0.0011087 -7.8893e-05 0.0053211 -0.0025752 0.0091815 -0.0051086 0.0092786 -0.002107 0.00063278 0.0029113 -0.0011077 -0.0098484 -0.00044147 0.0028293 0.0075136 -0.0033868 0.0060288 0.005781 
怎 0.0076669 0.0064347 -0.0090338 -0.0086366 0.00085909 0.0052367 -0.0079723 -0.0023424 0.010416 0.012126 -0.0073816 -0.0049189 0.00053379 0.0063863 -0.0093868 -0.0091418 0.0096832 -0.0064202 -0.0043899 0.0022377 0.0031236 0.0086541 0.00035754 -0.005943 0.0050939 -0.0014492 0.0069567 -0.0013237 0.0079784 -0.0072044 0.004859 -0.0019033 0.0017203 0.0066711 -0.005074 -0.0050628 0.0058203 0.0013479 0.0053499 -0.0097467 -0.0014774 0.0054844 -0.0057253 -0.00091895 0.006861 0.0035326 0.0015504 -0.0099122 -0.011132 -0.0026403 -0.0063896 -0.0043883 -0.012284 0.010632 0.0030607 0.006623 -0.00017017 -0.0061375 -0.0038188 0.0025736 -0.010041 0.0054052 -0.00087905 -0.0017646 -0.001288 -0.0015269 -0.001898 0.00195 0.0011881 -0.0027092 0.0051782 0.0062053 0.0076918 -0.00061549 -0.010366 -0.00094405 0.0078086 -0.0074914 0.0073694 -0.0072607 -0.0020208 0.0036731 -0.0051704 0.0018333 0.00024235 -0.0014204 0.0055388 0.0067611 0.00046439 0.0096279 0.00051006 0.0094847 0.0041763 0.0047303 -0.0055529 0.0038679 -0.0089334 -0.0052438 -6.5386e-05 -0.0073344 
买 0.0067482 -0.0033161 0.0083524 -0.0079749 -0.00081121 -0.0022106 -0.0029066 0.0046658 -0.0055126 0.001969 -0.0032057 0.0022362 -0.006544 -0.0061965 0.0050566 0.0062697 -0.002377 0.0029131 0.0019563 0.0028879 0.0054142 0.00412 0.0069018 0.0036484 -0.0074099 0.0074724 0.0093796 -0.0026865 -0.0085702 0.0053397 0.0074669 0.0012482 -0.0098903 -0.00024169 -0.011183 -0.0010177 0.0033378 -0.010079 0.0032485 0.0035704 0.0034447 0.00088829 0.0074611 0.0045977 0.0045274 -0.010506 0.0058875 -0.0062643 -0.0092638 0.0034496 -0.00999 0.0068629 0.00017202 0.011081 -0.0013936 -0.0045398 -0.0066688 0.001805 0.0083003 0.0106 -0.0095765 0.0065769 -0.0012023 0.00021379 0.0091711 0.0031255 0.0061821 -0.0069677 0.0079614 0.0026117 -0.0087435 0.010455 -0.00087592 0.0062925 -0.0051557 -0.0058136 0.0085973 -0.0015223 -0.0059438 0.0076719 -0.0086915 -0.0074007 0.012514 0.0029546 0.0051807 -0.0077224 -0.0023116 0.0013874 0.0024102 0.010053 0.0053341 -0.00012199 -0.00066753 0.0031417 0.0063958 0.0025712 0.0085125 -0.0064418 0.00032554 -0.0020889 
服 0.0033895 -0.0039946 0.001682 0.0094851 0.0069826 -0.00095907 0.0088894 0.00041657 0.002184 0.004899 -0.0041622 -0.0070175 -0.0047007 0.0084436 0.0067698 0.0040105 -0.0029526 0.0016431 0.008048 0.0079023 0.0069619 0.0064787 0.0078969 -0.007899 0.0085675 0.0029126 0.0015501 -0.0067094 -0.0094802 -0.0038387 0.0057859 -0.0017656 0.0053623 0.0014818 -0.00072772 0.0062361 0.0049244 0.0083842 0.0043997 0.0019899 -0.0026391 0.010535 -0.0056083 0.0057703 0.0066134 0.0030301 -0.00096689 -0.0097731 -0.0008516 -0.0033437 -0.0067731 0.0023706 0.0011067 -0.0074809 -0.0047524 -0.0029404 0.0022004 -0.0080799 -0.003444 0.0046174 -0.0011434 0.0063512 -0.0031714 0.0039068 -0.0073119 0.0096344 0.0019451 -0.0041702 0.0014671 -0.0014896 -0.0073512 -0.0032247 -0.0019242 4.3941e-05 0.00040838 0.0058513 0.00029023 0.0074207 -0.0076601 -0.011222 -0.0054735 0.0051321 0.009336 -0.0036339 0.0079081 -0.010874 -0.00024454 0.0069847 0.0068301 0.0069865 0.01074 -0.0054729 -0.0045697 0.0041126 0.0008286 -0.0030966 -0.0033156 0.010411 0.0079325 -0.0012164 
事 -0.00066423 -0.0023392 0.0095384 -0.00085014 0.0048584 -0.0011675 0.0053153 0.0078378 0.0045882 0.00090306 -0.0038827 0.00025029 -0.0058717 0.0036338 -0.011376 0.00082117 0.0037262 -0.0080887 0.0042564 0.0058835 0.0073464 0.00018638 0.002834 -0.011081 -0.0025794 -0.0072894 -0.0088448 -0.0017159 0.0072372 0.011691 -0.0068941 0.0034048 0.0080271 -0.0013719 -0.009773 0.0044366 -0.0073279 -0.0083713 -0.00042705 -0.010508 0.0045249 -0.0036056 -0.0017669 0.0077158 0.008361 -0.0084154 0.0059942 0.0054353 0.0061799 0.0058844 0.0043047 -0.0062014 -0.011759 -0.0070726 0.0058308 0.0030976 0.0091762 -0.0023008 0.0093142 0.0057052 -0.006637 0.0092648 0.010959 -0.0078193 0.00072821 -0.0051833 0.0029701 0.0043317 0.0026496 -0.0043846 0.0069008 -0.0045315 0.0086988 0.0044536 0.001828 -0.0067087 0.011326 0.0087841 0.0083342 -0.0096703 -0.0015668 0.0092988 -0.0042997 0.0028439 0.0038078 0.0081632 0.0048658 0.0016203 -0.0047769 -0.0085483 -0.0068867 0.0018968 0.0057654 0.0062556 -0.0036476 -0.0065838 -0.0069165 0.010978 0.0024 -0.010157 
分 0.0017107 0.0024038 -0.0024081 0.0030133 0.0028412 0.010113 -0.0010958 -0.0085822 0.00094083 0.0092924 0.0077482 0.0085277 0.0023532 -0.0044923 0.0043767 0.0062508 -0.0092688 0.0052104 -0.0011277 -0.00098991 0.0045946 0.0023687 0.0033378 0.002999 0.0094489 -0.0032161 0.0024964 -0.0096414 -0.0042589 0.0057625 -0.00078551 -0.0040922 0.0035738 -0.0070455 -0.01006 -0.0081798 0.0016063 0.004477 -0.00082071 -0.0024396 0.0074266 0.0033668 0.00011433 0.0079555 0.0018749 0.0012538 0.0098686 -0.0087356 -0.0068464 0.00067943 -0.0047175 -0.0067029 0.0040872 0.0089969 0.0024431 0.0081484 -0.0096284 -0.0048215 -0.0087727 -0.0052161 -0.0042985 0.0028391 -0.0074286 0.0033409 -0.0036691 0.0017095 0.0016799 0.00022252 -0.0094411 -0.0020503 -0.0030558 0.0078236 0.0057601 -0.0097641 -0.0081013 -0.009146 -0.0095886 0.0049139 0.0089728 -0.0066363 -0.0036432 0.00029932 0.0050696 0.0064488 -0.00043019 -0.0076864 0.008268 -0.0066837 -0.0046355 0.0056514 -0.0024595 -0.0090738 -0.0013162 -0.0067178 0.0077836 -0.0016768 -0.0050908 0.0035366 0.0033593 -0.010534 
3 0.0022408 -0.0056771 0.0051318 0.0067326 0.0058366 0.00098421 0.0024341 -0.0012634 -0.0048853 -0.0061801 -2.1465e-05 -0.0087041 0.0078687 -0.00052554 -0.0022084 -0.0035633 0.0056432 0.0050941 0.0048919 -0.0074111 0.0035364 -0.0027062 -0.0029771 0.0019555 0.0019379 0.0014562 0.007694 -0.0065291 -0.0068254 -0.0089093 0.0051685 0.0079397 0.009876 0.0094856 0.00092231 0.0084429 -0.0078848 0.0053142 -0.0085417 -0.002034 -0.0066637 -0.0042531 -0.0042697 -0.0012642 0.0076597 -0.0090276 -0.008214 0.0033423 -0.0020244 0.0032999 0.0061729 0.0072866 0.0099987 0.0056147 -0.0035254 0.0078231 0.0081182 0.0029895 0.0050679 0.00022561 0.0076435 0.0088027 -0.0010925 -0.0067098 0.0036552 -0.0048743 0.003356 0.0063967 0.0055427 0.00077051 -0.0064918 -0.0039965 0.0041618 -0.0060982 -0.0078965 -0.00259 0.0071103 -0.0031054 -0.0036336 0.0069539 0.0022396 -0.0013287 0.0078428 -0.0046963 0.0049366 -0.0053498 0.0088752 0.0066637 -0.0058062 -0.0075002 -0.0012657 -0.0093605 0.0076781 -0.0004664 0.0035101 -0.00091475 -0.0053948 0.0022529 -0.0050283 0.0015881 
电 -0.0038165 0.0035655 0.00019599 0.0080993 -0.005411 0.0050426 -0.0071581 0.0096461 5.8025e-05 -0.00026265 -0.0019058 0.0031321 0.0019242 0.00094812 0.0062557 -0.0064922 -0.0037487 0.008007 -0.0080077 0.0041774 -0.0074314 -0.0057832 -0.0037915 8.6405e-05 0.0010056 -0.008327 -0.008085 0.0047489 -0.00028494 -0.0071774 -0.0075774 -0.0088045 0.0062105 -0.0075345 0.0026963 -0.0031187 0.00018891 -0.0086525 0.0093777 -0.0052895 -0.0026162 0.0035139 0.0010261 0.0047101 -0.0008551 0.0015596 -0.0031234 -0.0024985 0.0053782 -0.0048259 -0.0059515 0.00034406 -0.0079465 0.00089334 0.0047303 0.0020222 0.00082697 0.0071254 -0.0087014 0.0042319 0.0033629 0.0020084 0.0010406 -0.0068093 0.00063608 -0.0027939 0.005723 0.00058075 0.003665 -0.0061953 0.00098322 -0.0087712 0.004659 0.00030723 0.0054217 0.0042729 -0.005994 -0.0074921 -0.00044114 0.0025009 0.0064335 -0.0061032 0.0094529 -0.00080012 0.0024045 -0.0016375 -0.007701 -0.0074067 -0.0025316 0.0032057 0.0096279 0.0051406 -0.0066522 -0.0026567 -0.0091971 0.0043649 -0.0043662 -0.0009353 -0.010394 -0.0017439 
为 -0.0082478 0.001708 -0.0047215 0.0095595 0.0069752 0.00046556 0.0011204 -0.0085968 0.00078044 0.0053523 -0.0092862 0.0024918 -0.00044522 0.0094584 -0.001256 -0.0057506 0.0062497 -0.0084658 -0.0028479 0.0056945 0.00093406 0.00029546 -0.0047571 0.0024876 0.0060076 0.0037643 0.0056972 -0.0066685 0.0040351 0.0020167 -0.0045352 -0.0011436 -0.0011147 -0.0034157 0.0050338 -0.0066177 0.0052906 0.005142 0.0087508 0.0031608 -0.0052368 -0.0057262 -0.004955 0.0065566 0.0023404 -0.0097665 -0.0052561 0.001709 -0.0078183 -0.0026409 -0.00027273 0.0091046 -0.010533 0.0035279 0.00037732 0.0040983 0.0095608 0.0071263 0.00077505 0.011174 -0.0046201 0.0036525 -0.0068379 -0.0013901 -0.0058924 0.00025565 0.0036495 -0.0085346 0.001997 0.0012908 -0.00037844 0.0061225 -0.0063961 -0.0032902 0.0072165 -0.00035775 -0.0083085 0.00081997 -0.0010149 -0.0088564 -0.0047938 0.0037137 0.0023713 0.0087096 0.0066133 0.0067368 0.0094893 -0.00053795 0.0063137 -0.0040453 -0.0034783 0.0038524 0.005253 0.0053841 -0.0021843 -0.0040944 -0.0093756 0.0055648 -0.0056731 -0.0025819 
上 -0.0036472 -0.0046802 -0.0090591 0.0032251 0.0078672 -0.0033582 0.009459 -0.0086248 0.0062712 -0.0036634 -0.0065098 0.0044511 -0.001459 -0.0089831 -0.0081877 0.0084375 0.0067976 0.0058216 0.0025176 0.0070745 0.0005448 -0.0060141 0.0072973 0.0057739 0.0053462 0.0005321 0.0013559 -0.0059937 0.0035172 -0.0075876 0.0063192 -0.0036099 -0.00074529 -0.0020249 -0.0061449 -0.0085264 0.0040517 -0.0083146 -0.0071904 0.0079178 -0.0041865 0.003206 0.0021108 -0.0071121 -0.0028481 0.0026262 -0.0027839 -0.0046077 0.001954 0.0033767 0.00117 -0.0076448 -0.0066619 -0.004748 0.0024788 0.0098619 0.0045495 -0.0090808 -0.0045052 -0.0039395 0.0074044 -0.0078066 -0.0085087 0.0091119 -0.0094977 -0.003074 -0.0009453 0.0088497 -0.0088919 -0.00097078 -0.0020373 0.0057524 0.0086988 -0.0027164 -0.0038836 -0.0017278 -0.0087208 -0.00045509 -0.0078622 0.0092201 0.0092815 0.00052692 0.0093254 0.0027431 0.0014163 -0.0064136 -0.0037797 0.009941 -0.0070309 0.0055017 0.002402 0.0094026 -0.0084 0.0027156 0.0013028 0.004824 0.0045081 -0.0036039 0.0043613 0.002424 
乐 -0.0014858 -0.001323 -0.0038122 -0.0016747 0.003098 -0.0012252 0.0089056 -0.0071333 -0.0013889 0.0039649 0.0036185 0.006618 -0.0093866 -0.0023706 0.0052608 0.0026344 0.0035085 -0.0076892 -0.0049599 -0.0059296 -0.0090394 0.010949 -0.002613 -0.0053023 0.0059094 -0.0050004 -0.00053469 -0.0090975 -0.0073228 -0.008833 -0.009913 -0.00020074 -0.00080196 0.0023224 0.0063616 0.0018896 0.0010745 0.0039525 0.001029 -0.0049639 -0.0016106 -0.0048681 0.0024619 -0.0062863 -0.0028639 0.0028818 -0.0027021 0.0012901 0.0058661 0.0005016 0.0019985 0.0027959 -0.0012047 -0.00035541 -0.0023916 -0.0025166 -0.0062051 -0.0022957 -0.0014142 0.0063009 0.0068467 0.002507 0.010417 0.0036607 -0.0083161 -0.0046104 0.0020366 0.0087707 0.0049226 0.00071164 0.0084549 0.007173 -0.0084275 -0.0050179 -0.0099438 -0.003888 0.0088505 0.0026838 0.0086901 0.0080037 -0.0053996 0.0088151 0.0032758 0.0033915 -0.0015675 0.0062322 0.0091576 0.0019047 0.0034198 0.0081991 0.0033691 -0.0047876 -0.00605 -0.0036141 0.0086707 0.0067756 0.0089638 0.0055353 0.0062166 -0.0090608 
帮 -0.0023172 -0.0092538 0.0082359 -0.0056782 -0.0053443 -0.0013099 0.0075083 -0.0066431 0.00047621 0.0020419 0.0015556 -0.0017216 0.0080418 0.0026454 0.0020087 0.009478 -0.0055116 0.0045993 0.0058724 0.0012009 -0.0015838 -0.0073233 -0.0069532 0.0066628 -0.0058487 0.0020368 -0.0086893 -0.0076992 0.0033379 0.00075747 0.0057412 0.0038108 0.0078125 0.0094368 -0.0030092 -0.0097446 0.0078559 0.0011994 0.0018169 0.0046737 0.0045235 -0.0050419 -0.0083098 -0.0056639 0.0072738 -0.008016 -0.0056429 0.001384 0.00045398 -0.0077255 0.0052131 -0.0046094 -0.002788 0.0097261 -0.0093212 0.0094749 0.0050708 -0.0091172 0.0081652 -0.0083404 -0.0009993 0.0091985 -0.0082821 0.0015621 -0.0012124 0.0046994 -0.0051136 -0.0052842 0.0060885 -0.00074772 0.0011002 0.0029354 -0.0078015 0.0028223 -0.009286 0.0029887 0.0036051 -0.0078572 -0.0052795 -0.0027536 0.0046569 -0.0059958 0.0043652 -0.0024769 -0.003469 -0.0040524 0.0011771 -0.00018197 -0.00069907 0.0012943 -0.0053211 -0.0043632 -3.0451e-05 0.0020296 0.0058759 -0.0037666 -0.0012178 -0.0060398 0.0056918 0.0075907 
人 -0.0094796 -5.9387e-05 0.0053936 0.008002 0.0053356 0.007454 0.0023327 0.0084862 0.0072599 0.0059615 -0.0047703 0.0026738 -0.0065864 -0.0067574 -0.010132 -0.0085918 0.0051599 0.0050495 0.0053924 0.0056606 0.0095659 0.0076054 0.0075242 -0.011662 -0.0014954 0.0081837 -0.0063637 0.0045215 0.003951 -0.0052803 0.0059972 -0.0049937 0.0019091 -0.0043482 -0.010486 0.0035506 0.0044455 0.0050991 -0.00044204 0.00051532 0.0043082 0.0078353 -0.0034962 -0.0041504 -0.00706 -0.0065075 0.002562 0.0049081 0.0057511 -0.0018653 -0.0045986 0.0073006 -0.0036884 0.0083875 0.0039444 0.0023254 -0.0003645 0.0049475 -0.0026313 0.0042069 -0.0072834 -0.004653 0.011203 -0.0021798 0.0039573 0.0045749 0.0030231 -0.0081547 -0.0063907 -0.0052861 0.00015607 -0.0049613 0.0015421 0.0010203 0.0016965 -0.001078 -0.004328 -0.0054735 -0.0053723 -0.0023114 -0.00063063 0.010637 -0.0048596 0.0020717 -0.006745 -0.010387 -0.0048005 0.008805 0.0054475 0.00099825 -0.0045492 0.008658 -0.0043751 -0.00034138 -0.0058584 0.0048999 -0.00060721 0.01001 0.0048258 0.0057807 
村 0.0068233 0.010563 0.0065079 0.0070568 0.0098847 -0.0030274 0.0036733 0.0023523 -0.0042547 -0.0032695 0.00034724 0.0083082 -0.0019514 0.008587 0.008723 -0.0062954 0.0034333 -0.0088504 -0.0074538 0.0043045 0.00057089 -0.0076188 0.0008161 -0.010303 0.0073639 0.0088593 -0.0088163 0.0021635 0.00081074 0.010476 -0.008189 0.0042479 0.007399 -0.008361 -0.0055157 0.0053361 -0.0019026 -0.0038691 0.0034439 -0.0025138 -0.0017009 0.0024699 0.0054472 0.0042321 0.0062266 0.0067697 -0.0079506 0.0075353 0.0080259 -0.0013927 -0.006475 -0.0080357 -0.0054727 -0.0023883 -0.0060175 -0.0079971 0.00087289 -0.0013381 -0.0066608 -0.0088821 9.6525e-07 -0.0017812 0.0079776 6.8878e-05 -0.00077634 -0.0047611 0.0014338 0.0036076 -0.0052996 -0.0038868 -0.0039215 0.0092832 0.0010358 0.0038705 0.0023008 0.0083994 -0.00634 0.0050307 0.0049167 -0.0081552 0.0056927 -1.0161e-05 -0.0034975 0.0061914 0.00016991 0.0080519 -0.0098549 -0.0067414 -0.0098899 -0.0070474 0.0025016 -0.00025738 -0.0039192 -0.010162 -0.00029351 -0.00072665 0.0038827 0.0053053 -8.8442e-05 -0.0075647 
多 -0.0079378 -0.0076197 -0.0081799 -0.0072066 -0.00082339 0.0041165 -0.00076953 0.0055104 -0.003707 0.0086328 -0.0057908 0.0061139 0.00068432 -0.0017458 -0.00087067 0.005924 0.0031454 0.0020483 0.001599 0.0068144 0.0071328 -0.0048945 -0.0086386 -0.0098049 -0.0078285 0.0017099 -0.0056644 0.0074498 0.0015483 -0.0083559 0.0012409 0.0065037 0.0023109 -0.0063201 0.00098113 -0.0089104 -0.0016278 0.0055065 -0.0047146 0.0026167 -0.0053552 -0.0074297 0.00011629 0.0095095 -0.0051914 -0.0052119 0.0014198 -0.003194 0.0084569 0.005732 0.00059494 -0.0068584 -0.00095677 0.0027348 -0.0031525 0.0020816 -0.0044723 0.00073665 0.0048145 0.0019054 -0.010379 0.0063895 0.0037401 -0.0073015 -0.0020228 0.00060883 0.0042586 -0.0044115 0.0018423 -0.0027696 0.0060134 0.0036365 0.00059397 -0.0039331 -0.0076398 -0.00040287 0.0083023 0.0010033 0.0038882 0.0079256 -0.0063473 -0.0059428 -0.0079644 0.0066403 0.0018806 0.0022928 0.00069638 -0.0078606 -0.0027645 0.0068539 -0.00089993 -0.0029725 -0.0081291 -0.0086852 -0.0012783 0.0023588 0.0059186 0.0052593 0.00086986 0.0020462 
天 -0.0089639 -0.0058159 0.0015966 0.00064658 -0.0065672 0.0037097 -0.0033044 -0.0052248 0.0052811 -0.0028828 -0.0094836 0.0081686 0.0039414 0.0090936 -0.0032275 0.0051926 0.0021448 0.0085974 0.009648 -0.0057186 0.003325 0.0058815 0.0020407 -0.005245 -0.0010426 -0.007136 0.0040797 0.0075591 0.006899 -0.0080299 0.00051037 0.0079679 0.00035237 -0.0061708 -0.0076942 -0.0010646 0.0046284 -0.0094998 -0.0046692 0.0010208 -0.0037941 0.0059866 0.0035611 -0.0062348 -0.0055475 0.0011475 -0.0095341 -0.0052725 -0.0037645 -0.00071963 0.0063648 0.0075227 0.0066298 0.0061716 0.0015854 0.00036517 -0.00011201 -0.0064968 0.0099186 -0.00094181 0.0069282 -0.0070203 0.0093953 0.0094496 0.0090565 0.00051981 0.0012901 0.0027357 -0.0047625 -0.0068869 0.0087296 0.0052573 -0.0084417 0.0068596 -0.009196 -0.0089098 0.00082352 0.0045527 -0.007526 -0.0015636 0.00018046 0.0082112 0.004596 0.0092381 -0.0035358 -0.0057375 -0.00056739 -0.003804 -0.0098112 -0.0072524 0.0063681 0.0030826 -0.0023409 -0.0018031 -0.0011931 0.0024948 0.0048706 -0.0049423 0.0088999 0.0080638 
址 -0.0027826 0.010643 -0.0016883 -0.0079715 -0.0066473 -0.008349 0.0016216 -0.010013 0.002886 -0.0023909 -0.0095039 0.0089833 0.010371 -0.0079595 8.781e-05 -0.00056463 -0.0091516 -0.0053143 -0.0074718 -0.004616 -0.0096355 0.00161 -0.0048355 -0.0059033 -0.0024701 0.0072493 -0.009027 -0.010527 0.0014947 -0.0028972 0.0043968 -0.0005353 -0.0042308 -0.0010049 0.0077625 -0.0093732 -0.0072428 -0.0077714 0.0060464 -0.002751 0.0048981 0.0039616 0.0063693 0.0044831 -0.0068898 0.0030084 -0.009777 -0.0050667 0.0052095 -0.0013962 0.0082677 0.0038007 -0.010581 -0.0058621 -0.0043636 0.0066211 0.0033797 0.0052862 -0.0029654 0.0043633 0.0059985 0.010139 -0.0082102 0.0072204 -0.0081035 -0.001806 0.0012335 0.0068583 -0.0060775 0.0031814 0.0015362 0.0087388 0.0091479 -0.0051305 -0.0016922 0.0040357 0.0047709 0.0071697 -0.002134 -0.0010691 -0.0081763 -0.007506 -0.0078734 -0.0062054 0.0026988 0.0089622 0.0094968 0.0015972 -0.0030078 -0.0063777 0.0096131 0.0086851 -0.00020174 0.0066474 0.0049769 -0.0089605 0.00073387 0.0075203 0.0051729 -0.007 
地 0.0025767 -0.0085968 -0.0024164 0.00081988 -0.00020871 -0.0073211 0.010203 -0.0081756 0.0043506 -0.0048441 -0.0025775 0.0040303 -0.0049899 -0.0051421 -0.0080732 0.001891 0.0094259 -0.0088024 0.0056514 0.0068704 0.004251 -0.0012796 0.0052439 -0.0072146 -0.0088938 0.0092554 0.010185 0.0029949 0.0097811 -0.0043385 0.0007017 -0.0084155 0.0062408 -0.0064137 -0.00053581 -0.0022633 -0.0088184 -0.0092833 -1.8133e-05 -0.0095011 0.00021817 0.00085702 0.0058161 0.0077976 0.0057027 0.0075874 -0.0015067 -0.0017272 -0.0032325 -0.0047193 0.0063885 -0.0016027 -0.0045355 0.010151 -0.0060862 0.0056701 0.0050975 -0.005485 -0.0051919 -0.00057498 0.0053909 -0.0036449 -0.0017422 -0.0076723 -0.0081625 -2.1407e-05 -0.010089 -0.0025954 -0.0054162 0.0024062 -7.4836e-05 -0.0089923 0.0042663 0.0028117 0.0046035 -0.0086984 0.0062129 0.0044146 -0.0002637 -0.0058036 -0.0072583 -0.0055133 0.0068764 -0.00080062 -0.0044608 0.0055845 0.0023745 -0.00339 0.0049382 -0.009778 0.009709 0.00019621 0.0046039 0.0013228 -0.0049183 -0.001534 0.001801 -0.00039079 0.0056082 0.0032298 
做 0.0055074 0.0081598 0.001843 0.0015437 0.0017202 0.0049088 -0.0039887 0.0057251 -0.0039895 -0.0094555 -0.0015802 -0.00043136 0.005313 -0.0069145 -0.0088562 0.0076774 0.0068618 -0.0089967 0.0014697 0.0020248 0.0098956 -0.00062189 -0.00054065 0.0051029 0.0031325 0.0081292 -0.0081116 0.0042132 -0.0013428 0.0081293 0.0040864 0.0015901 0.0070247 0.0044261 -0.0037067 0.0024411 0.0097899 0.00099621 0.0013907 0.0049241 0.0014838 -0.0047396 -0.0086218 -0.0056036 -0.00035156 -0.0069437 0.00078053 -0.0011908 -0.0058963 0.0046578 -0.0056486 -0.0048632 0.0065192 -0.0072339 -0.0056824 0.0059682 0.0026986 0.00067106 -0.0010576 -0.0074206 -0.0035223 -0.0073041 -0.0081853 0.0026453 0.00386 0.0077057 0.0016232 0.0034614 -0.002898 0.0092124 0.0058372 0.008885 -0.0030082 0.0051921 0.0025165 6.1436e-05 -0.0058566 0.0098384 0.0046085 -0.005064 0.0054092 -0.003599 -0.0032967 -0.0024182 0.0020197 -0.0091197 -0.0022897 0.0036073 -0.0042973 -0.0089682 0.0063415 0.00091948 0.0024559 -0.0072473 -0.0015644 0.0055996 0.0096485 0.0025121 0.0072494 0.0026338 
都 -0.003082 0.0053801 0.003482 0.0061446 0.0027061 -0.0036483 0.0041555 0.0043897 0.0094963 0.010023 -0.0036977 0.0015503 0.0049046 -0.00083585 -0.0065601 -0.0097307 -0.0014885 0.0019788 -0.0091367 -0.0025989 0.0028802 0.0062231 -0.0048571 -0.0041495 0.0065984 0.0038121 -0.0029939 -0.0013842 0.00056144 -0.00045191 0.0089589 -0.0086615 0.0090719 0.0027613 0.001412 -0.0087453 0.0028501 -0.0073033 -0.0096933 -8.4462e-05 -0.00029662 0.00063964 -0.0031547 0.0058749 -0.0038161 -0.0081811 -0.0056998 0.004052 0.0052643 -0.0025816 -0.0020443 0.008928 -0.0067376 -0.0063746 -0.0068648 0.0070436 -0.0044622 -0.0040945 -0.0052683 0.0056444 -0.0078219 -0.0061079 0.0098304 0.0048142 -0.003541 -0.0059489 -0.0042237 -0.0089887 -0.0037227 0.011148 0.0055957 0.0025172 -0.0067991 -0.0016238 -0.010188 0.00082982 -0.0060123 -0.0084417 -0.0029325 -0.0077128 -0.0048545 0.00013396 -0.0018442 0.0069089 -0.0087493 0.0027685 0.0012667 -0.0058266 -0.0012013 -0.0026481 0.0021723 0.0032902 0.0090767 0.0057405 -0.0039885 0.0055845 -0.0032995 0.010371 -0.0090192 -0.0084696 
想 0.0027895 -0.0075772 -0.0094944 -0.0055189 -0.0086232 -0.0077883 0.006705 -0.0033591 -0.0037236 0.00261 -0.0072541 -0.00098015 -0.0090358 0.0055806 -0.0043457 -0.0053474 -0.0091637 3.342e-05 0.005267 0.0084259 0.001878 -0.0036805 0.0094243 0.008523 -0.0010707 0.0004245 0.0022602 0.0051326 -0.0045589 -0.0063679 -0.0084846 -0.0049935 -0.0079333 -0.0030138 -0.0095089 -0.008305 -0.00029241 0.0093686 -0.0049924 0.0074028 -0.0071549 0.0091764 -0.0054925 0.0088197 -0.0028965 -0.0017028 0.0084249 -0.003429 -0.010716 -0.0047074 -0.0043692 -0.0068682 0.0029341 0.0033862 -0.0075027 -0.0048412 -0.00015831 0.010063 -0.0048172 0.0038983 0.0037855 0.0030502 -0.0017495 0.0087841 -0.004802 -0.0013246 -0.0027755 -0.0089589 0.0076687 -0.003226 -0.0097607 -0.0080232 0.0042212 0.0031419 -0.0017028 -0.0086215 -0.0085603 0.007435 0.009713 0.0018013 0.0053522 0.0046696 0.0034456 0.00205 -0.0090388 0.0061997 -0.0077871 0.0010863 0.0091221 0.0080354 -0.0071923 -0.0035694 -0.0065689 0.0019163 0.0024184 -0.0069424 -0.0091591 -0.0051163 0.0023232 0.0075216 
通 0.0023104 0.00028667 0.007812 0.0077572 0.0050018 0.0043325 0.0075023 0.0066331 -0.00094076 -0.0069945 -0.0086679 -0.0090745 0.006539 0.008862 -0.0075372 -0.0038137 0.0067089 -0.0087024 0.009476 -0.0040474 0.0066723 -0.0062478 0.0067411 -0.0061093 -0.0034767 0.0092719 0.0062097 0.0018123 -0.00028234 0.0054292 -0.001434 -0.0078946 0.0080599 0.0063882 0.0084831 -0.0072165 -0.007673 -0.0071727 0.0014007 0.0035749 -0.0013121 -0.0070577 0.0056045 -0.0077396 0.0075807 0.0060792 0.0053158 -0.008361 -0.0061797 0.0088374 0.0034516 0.00041671 -0.0049703 0.00585 -0.0085831 -0.0068658 -0.0088026 -0.0081996 -0.0080467 -2.9742e-05 -0.004855 0.0034449 0.0013421 -0.0061678 -0.0053843 0.0036153 -0.0013815 0.00067438 0.0096965 0.0079477 -0.0043808 0.0091557 0.0077136 0.0014581 0.0076697 -0.0051027 0.00086605 -0.0026209 0.0026362 -0.0043472 -0.0040234 0.0006536 -0.0037062 0.001542 -0.0031801 0.00092098 0.0047476 0.0088185 -0.0052504 0.0095304 -0.00022297 -0.0099191 -0.0054801 0.00050877 -0.0077568 -0.0019133 -0.0095584 -0.006048 -0.0065837 -2.4772e-05 
认 0.0090886 0.0030585 -0.0097541 0.0051936 0.0059544 0.0063487 0.0067133 0.0061459 -0.0036803 0.0083848 -0.0012584 0.0071062 -0.0071959 -0.0054074 -0.0025467 0.0031193 0.0042735 0.0061467 -0.0078168 0.0095406 0.00045174 -0.0041479 -2.3465e-05 -0.0055492 0.0093881 0.0017056 -0.00082595 -0.0028719 0.0047444 -0.0018747 -0.0099591 2.7671e-06 0.0072842 0.0032859 -0.00012885 0.0088422 0.0089108 0.007725 -0.0032831 0.0079624 -0.0062115 -0.0012976 0.0092247 -0.0064058 0.0043137 -0.0039771 0.0020201 0.00078819 0.0090824 0.0091985 0.0079415 -0.0052943 0.0066793 -0.0065578 0.0044531 -0.0065458 -0.0012169 0.0092601 0.0039995 -0.004976 0.0065018 -0.0041115 0.0055268 -0.0072157 -0.00014426 0.0042543 -3.4794e-05 0.004401 0.0097827 -0.0057022 -0.0028388 0.0012613 0.0052369 0.00688 0.0014232 -0.0017533 -0.0094442 -0.0017713 -0.00036281 -0.0021869 0.0048433 0.010204 -0.0070181 0.00046901 -0.0057954 0.0010311 -0.0094313 -0.0032764 -0.0070867 -0.0017603 0.0057933 -0.0021741 -0.0074012 0.0019317 0.00086708 -0.0069339 -0.0014226 -0.0064879 -0.0019948 -0.0090195 
确 -0.010341 0.0091467 0.0044426 0.009188 0.0070656 0.0065414 0.0046415 0.0098089 0.0088065 -0.0090447 -0.0033477 -0.0052836 0.0073462 -0.0048424 -0.0076358 -0.0096709 -0.0089237 0.001953 0.0065935 -0.0076579 -0.00042876 -0.0086925 -0.0024672 0.002886 -0.0061278 0.0090433 -0.00096498 0.0038013 0.0027079 0.0033926 0.004167 -0.0054314 -0.0030374 -0.0023029 -0.0075519 -0.0073458 0.0082274 0.0085456 -0.0008362 -0.0032811 0.0018789 0.0031368 0.0082375 0.0089045 -0.0057377 -0.0094378 -0.0061033 -0.010071 0.0050547 0.0019743 0.0079221 0.0080633 0.0070243 0.0058481 0.0080912 0.0067313 -0.0018178 0.0077699 -2.2393e-05 -0.00080846 0.0012597 -0.003578 -0.0021796 0.01014 0.00088273 -0.0019453 -0.0064095 -0.0078339 0.0091047 0.0081456 -0.010591 -0.0069684 -0.0058688 0.0023053 -0.0089967 -0.0061519 0.0079082 -0.008474 -0.0026898 0.0091539 0.00065989 0.00095551 0.0018451 0.0076476 -0.0011438 -0.0045983 -0.0046802 -0.0079195 -0.0055408 0.0065815 0.0099138 0.0013871 0.0072969 0.0085763 -0.0057876 -0.0020566 -0.0024178 0.0073174 0.0058097 0.0043855 
知 -0.0031245 -0.0061275 -0.0056642 -9.9213e-05 -0.0087475 -0.006247 0.0044053 0.0030167 -0.0017321 0.0019854 -0.0047495 -0.0011759 -0.0037439 0.0029795 -0.0090381 0.0039046 0.005593 -0.0048557 -8.4771e-05 0.0074127 0.0092365 0.005458 0.00030791 -5.1035e-05 0.0010156 0.0094449 0.0033058 -0.0066048 -0.0079494 -0.0067596 0.001667 -0.0094059 -0.0097121 -0.0093414 -0.0072133 0.0097871 0.0064537 0.0084036 0.0071279 -0.003465 0.0059701 -0.0075777 -0.0010924 0.0045599 -0.0063847 -0.00059634 -0.0069401 0.0085552 -0.0003851 0.0091361 0.001146 -0.0017232 0.00064876 -0.0093696 0.0099038 -0.0039208 -0.0064083 -0.0042801 -0.002401 0.0064218 0.0010376 0.0077421 0.0015874 0.0097242 0.0024452 0.00398 0.0021382 -0.0012885 -0.0018151 -0.00063423 0.0074105 0.0067842 -0.0016948 -0.0069912 -0.0039542 0.0032081 -0.00035044 -0.0033055 0.00331 0.0091372 0.0052664 0.0057123 -0.00094325 0.0041683 -0.0012163 -0.0056258 0.0035087 -0.0069946 -0.0076581 0.0051315 -0.00021017 -0.0040831 -0.0018221 0.0054494 -0.0057232 0.0035627 0.0064801 0.0079283 -0.0052291 -0.0071793 
刚 0.0056709 0.00072766 0.0079385 -0.00053247 -0.00097018 0.0085704 0.0028928 -0.0038429 -0.005061 0.00079516 -0.0092438 0.0027473 0.0050346 0.00092914 -0.0068233 0.0035703 -0.00091497 0.0079446 -0.0061141 0.0011832 -0.0044342 0.0096926 0.010444 -0.0068367 -0.00017205 0.006502 0.0028909 0.0029356 -0.0041712 0.0087979 0.0047572 0.0064159 0.00053372 -0.0086237 -0.0012696 0.005751 -0.0058334 0.0074447 -0.00060292 -0.0034955 0.0040991 0.010867 0.0046862 -0.0028003 0.0086286 -0.00056475 -0.0037609 0.0014647 -0.0094135 -0.0061328 0.0017119 0.0035044 0.0014415 0.010487 0.0019885 0.0075884 0.0012904 -0.0058493 -0.0062407 0.0083842 0.0056568 -0.0036843 0.0020692 0.006047 0.0082416 0.0078896 -0.0078891 -0.0074333 -0.0035668 -0.0057007 -0.0029296 0.0064919 0.0052282 0.008639 0.0054199 0.0018613 0.009417 -0.0064656 0.003186 0.0058323 0.0035894 -0.0076441 0.0089567 -0.0084873 0.0090676 -0.0097741 0.0079093 -0.0082204 0.00095155 0.0010534 -0.0019111 -0.0061888 -0.0020862 -0.0065889 0.0026932 -0.00033538 -0.0071184 0.0093929 -0.00357 0.0006058 
款 0.0080943 -0.0057237 0.0025473 0.0080097 -0.0045789 -0.0083978 -0.0017641 0.00612 -0.0047092 -0.0082353 0.0038571 -0.0037615 -0.0064183 0.0019934 0.0073489 0.0014217 0.0044985 -0.0050839 -0.0079536 0.0069057 0.0089911 0.0068001 0.0077364 -0.0050153 0.0023275 -0.004357 0.0069188 -0.0073852 0.0029832 -0.0065101 0.0065896 -0.0039676 -0.003139 0.00025643 0.004279 0.0078389 -0.00067078 -0.0095761 -0.0067784 -0.0078475 -0.0026541 0.0070478 0.0026533 -0.0087276 -0.0021525 -0.0095759 0.0074432 -0.0043627 0.0049931 0.0027325 -0.0047146 0.003581 0.0059169 -0.00079962 0.0071842 0.0025414 -0.0012088 -0.0054974 0.0017609 0.0032495 0.006732 -0.0036766 -0.00039285 0.0077547 -0.0047677 -0.0092494 -0.0049801 -0.0076326 -0.0053597 0.0094515 -0.001323 -0.0077649 0.0038595 -0.0040624 -9.4614e-05 -0.0085928 0.0012848 -0.0046268 0.0026416 -0.00063794 -0.0024251 0.0068614 0.0012833 -0.0096393 0.0077262 -0.0017268 -8.0513e-06 0.00077158 -0.0058078 0.00037821 0.00090724 0.00074454 0.0073897 -0.0043849 -0.0084399 -0.0024376 -0.0015073 0.0060163 -0.0057708 0.0054765 
O -0.00024858 0.0026896 0.0064243 0.0093104 0.0065227 -0.0057669 -0.0069689 -0.010127 0.0068915 0.0066964 0.0010852 -0.0044526 -0.0082407 0.0015819 -0.0095052 0.0065659 0.0057545 -0.001927 0.0027878 -0.0089234 -0.0052921 0.012044 0.0077477 0.0054902 -0.0041809 0.0069015 -0.0076523 -0.0013703 0.004279 0.0054198 -0.0086747 -0.00275 0.0068641 -0.011138 -0.011703 -0.0060242 0.0089282 -0.0040054 0.00059023 0.0086394 -0.0024205 -0.0015582 0.0086562 0.012361 -0.00039578 -0.0053364 -0.0082614 0.0018428 -0.0095806 0.0098184 -0.0070863 -0.0019592 -0.0073582 0.0085087 0.0016408 -0.00047571 -0.0055521 0.00013533 0.0040894 -0.00030624 -0.0010846 0.0010347 0.0087464 -0.0020342 0.0085904 -0.0083164 -0.0099117 -0.003283 0.0032108 0.0045572 -0.0017566 -0.00080982 -0.010465 -0.0072774 0.002746 0.0041342 -0.0031787 -0.0062376 0.00291 -0.0071814 0.00038553 0.01053 0.010216 0.004541 0.006289 -0.0060461 0.0035906 -0.00076386 -0.00073574 0.0081201 0.0038785 -0.0091784 0.0050298 0.0030906 -0.0088507 -0.0047236 -0.0062432 -0.0065386 -0.0021098 3.6323e-05 
. 0.0080414 -0.00051494 -0.0041748 0.00515 0.0026129 0.0012935 0.0085068 -0.0028789 -0.00090845 0.0016277 -0.004571 -0.00087535 0.0025356 0.00050002 -0.0053369 0.0099019 -0.0037819 0.0094257 0.0042258 -0.0056619 -0.0013569 -0.0010286 -0.0080633 -0.0070993 0.0018336 -0.0020108 -0.0098334 -0.0077222 -0.0028457 0.0097545 -0.0035425 0.0066764 0.0043003 -0.008534 0.0042512 0.0027696 -0.00041816 -0.0038075 -0.0034115 -0.0090678 -0.00076668 0.0029391 -0.0076416 0.00061496 0.00096345 0.0044325 0.0033502 -0.0037001 0.0073242 0.00076371 -0.0042053 0.0055927 -0.009105 -0.0030336 2.5621e-05 -0.0039991 -0.0060888 0.0078403 0.0042805 -0.008344 0.00041406 0.0090953 -0.0051146 -8.5935e-05 0.0056104 -0.0079757 0.0079882 0.0031757 0.0028704 -0.00035723 -0.0092716 -0.0059686 0.00047244 0.0078211 -0.00084358 -0.0036415 0.0041629 0.0028707 0.0064371 -0.0049945 0.0042918 0.0088238 -0.00060837 0.0084154 0.0031206 0.0027287 0.0060258 -0.004539 0.0062587 0.0067153 -0.0027108 0.0024725 0.0076255 -0.0072298 -0.0080967 -0.0046371 0.0040091 -0.0072476 0.0045258 0.0074385 
K -0.0060611 0.00067423 7.1075e-05 -0.00037898 -0.001981 -0.00021683 0.004752 0.0025789 0.0011481 0.01132 -0.0010354 -0.00093346 -0.0022562 0.0076833 0.0050003 -0.0063878 0.001238 0.0026054 -0.0013539 -0.0034743 -0.0030081 -0.00066008 0.010252 -0.0099106 0.001701 -0.0031994 0.010023 -0.0098013 -0.0059665 0.0079314 -0.00033004 -0.005154 -0.0083305 0.0016986 0.003041 0.0066806 0.0013291 -0.00079514 0.0053891 -0.0099369 -0.0052264 0.01031 0.0038661 0.0066337 0.0023935 0.006097 -0.0028133 -0.0090151 -0.0011093 -0.0086721 0.0050028 0.012768 -0.010235 0.0084541 -0.0093665 0.0013509 -0.0095367 -0.0073736 0.002922 -0.0056077 -0.004826 0.006287 0.0079861 0.01221 0.0020347 -0.0093656 -0.0086358 0.0097105 -0.0048708 0.012326 -0.0097075 -0.0066471 0.0072172 0.01039 -0.0093579 -0.001927 0.0066158 -0.003976 0.0066074 -0.0043374 -0.0086726 -0.0056363 -0.0049472 0.00067687 -0.00076923 0.0070763 0.0076256 -0.0057182 0.0042724 -0.0039009 0.009224 0.010128 -0.0018494 -0.009121 -0.001388 0.0045857 0.0061234 -0.0050147 0.0031121 0.0057831 
提 -0.005885 -0.0076417 0.0085299 0.0010661 0.0034579 -0.0028618 -0.0081379 -0.0046969 -0.0082935 0.010477 0.0085194 -0.0056661 0.00084887 0.0029293 -0.0057414 0.0014485 -0.0024916 -0.0079336 0.0078085 -0.005398 -0.0080125 0.0058298 -0.0011526 0.0085109 -0.0075547 -0.00080393 0.0066008 0.0053182 0.0053708 0.010761 -0.01021 -0.0073601 0.005865 0.0045658 0.0070257 0.0026149 0.00059477 -0.0020859 0.0051285 0.0083395 -0.0041224 -0.0082888 -0.0053806 -0.0021496 0.0064779 0.00020285 -0.0044516 0.0064896 -0.00030242 0.0069772 -0.0048679 0.0064663 0.0045553 -0.00039359 0.0060737 -0.0071849 -0.007317 0.009021 0.0033234 0.010223 -0.0021108 -0.0013244 0.0064466 0.0018662 -0.004741 0.00092264 -0.007012 0.0034875 0.0076529 0.00020742 -0.00243 0.0057006 -0.00071536 -0.0083024 -0.0032444 0.0012719 0.0085162 -0.0094689 0.0079794 0.0078942 0.0057825 -0.0078587 0.0088062 0.0071659 -0.0058214 -0.001562 0.0011856 -0.0027201 -0.0040253 -0.00045458 0.0090039 -0.0009897 -0.0056109 0.0029794 0.0073715 -0.0059301 0.0034243 0.0064345 0.0015456 -0.0003768 
老 0.0085328 0.0019952 -0.0067816 -0.008713 -0.0013933 0.0034604 -0.0047481 -0.0065825 -0.00070013 -0.003719 -0.00422 -0.0035203 0.0051462 -0.0048324 -0.0048015 -0.0071878 0.0098146 0.0071684 0.0097514 -0.0042225 0.0058324 0.0095613 0.0012366 -0.0078366 0.0096015 -0.0013939 -0.0082372 0.0059019 0.0091031 -0.0048035 -0.010566 0.0027487 0.0036618 -0.0030323 -0.00085757 -0.0019145 -0.0093797 0.0029801 -0.0006706 -0.0049596 0.0069212 0.0033081 -0.0026257 -0.0063593 -0.00038974 0.0044945 -0.010029 -0.006512 -0.006203 0.00038722 0.0050557 0.0047816 0.0078934 0.0060753 -0.007356 -0.010098 -0.0056263 0.0047171 0.006815 -0.0076527 -0.0021975 0.0083054 0.0030373 0.0057177 0.0079014 0.0037919 -0.0073091 -0.0031882 -0.0018904 -0.0053246 0.0032734 0.0032198 -0.00022657 0.0026302 -0.0077841 -0.010012 -0.00041803 -0.00018271 0.0078369 -0.00092195 0.00689 -0.0025718 0.011486 -0.010972 0.0062949 -0.0042804 0.0028091 0.010672 0.0070635 0.0053957 0.011613 -0.0027527 0.0012306 -0.010902 -0.00067279 -0.00574 -1.9906e-05 -0.00083226 -0.0048201 -0.0091685 
七 0.005997 -0.0054201 -0.0065015 -0.0088179 -0.00092026 0.0085014 -0.0088321 -0.0040281 -0.0008814 0.00092693 -0.0087187 0.0066869 -0.00055607 -0.0039172 -0.0090534 -0.0013136 0.004359 0.0085165 -4.4878e-05 0.0037988 -0.002025 -0.0039539 -0.0093317 0.00096141 0.0077672 0.0095141 -0.0077738 0.0031518 0.0055996 0.0073305 0.0081065 0.0086228 -0.00096088 -0.0018692 -0.0069504 -0.0056925 0.0011485 0.0032553 -0.0067238 0.004542 -0.0089388 -0.0036957 0.0089467 -0.010469 0.0088993 0.0010262 0.0083729 0.0021538 -1.9942e-05 -0.0074023 0.0059714 0.0085326 0.0020372 -0.0059677 -0.0095844 -0.0072043 -0.0027073 -0.0089409 0.0032641 -0.0094672 0.0067728 -0.0019991 0.0038151 0.0049723 0.0078518 -0.0027726 0.010959 0.0018931 -0.0043784 0.0045653 0.00040169 0.0035086 0.0023364 -0.0026334 -0.00072247 -0.0020212 -0.00029433 -0.003165 0.00064634 0.0070953 0.010455 -0.0026994 0.0010287 -0.00027597 -0.00064798 -0.0015263 0.008191 -0.0058439 -0.0084299 -0.0091512 -0.01002 0.0059919 -0.0074018 -0.0090278 0.0035861 0.0027968 -4.7446e-05 -0.0089356 -0.0013413 0.0070065 
选 -0.010119 -0.0044787 0.00092939 0.0050591 -0.0049624 0.0050677 -0.0022679 0.0043606 -0.00064124 0.0039035 -0.00027866 0.0013557 -0.0077719 -0.0037815 0.0062794 -0.0068496 0.0072756 0.009358 0.00088373 -0.010225 -0.0019865 0.0082187 0.0031259 0.004205 0.0047191 0.0070285 0.0094819 -0.0075037 -0.0017569 0.0067379 0.004041 0.0014774 0.006554 -0.0056438 0.00071765 0.009678 -0.0066031 -0.0077113 0.0024255 -0.0067371 0.00078298 -0.0075916 0.0012627 -0.0022495 -0.0019042 -0.0033775 0.006808 0.0042125 0.0039506 -0.0076909 -0.0086509 0.0069805 -0.001326 0.0094592 -0.003896 -0.0023071 -0.006818 -0.0066433 -0.0075201 0.0024207 0.0047024 -7.7268e-05 -0.00051231 0.0043633 0.0064199 0.0012267 -0.0080836 0.0099034 -0.008667 -0.0092105 -0.0073438 0.0068796 0.0092057 0.0041584 0.0094078 -0.0037383 -0.0022487 -0.0098143 0.0033859 0.0054855 0.0052254 -0.00050327 -0.0048679 0.0051475 -0.0094457 -0.002835 -0.00051264 0.0053768 0.0028766 0.0069132 0.0054507 0.0094574 0.0018108 0.0055672 -0.0073273 -0.0098219 0.0061177 0.0011146 -0.00061169 -0.0058544 
明 -0.0021654 0.0035623 0.0078623 -0.0024411 0.002427 -0.0035275 -0.0016499 0.0053653 0.0057907 0.0038416 -0.0059965 -0.0089082 -0.0027816 0.0037917 -0.0097715 0.0030301 -0.0030665 0.0089946 -0.0029663 0.0066211 0.0098557 -0.001048 -0.0045161 -0.002688 -0.004298 0.0012755 -0.0063877 -0.00034905 -0.0059031 0.0038085 -0.0072674 -0.00057971 -0.0025096 0.0055593 -0.0047601 -0.0043498 0.0093675 0.007189 0.002494 0.0018996 0.0037539 0.0049755 0.0084906 0.0063487 -0.0039436 0.0029674 0.00233 -0.007074 0.0046122 0.0033958 0.0045862 -0.0072431 -0.0048978 -0.0057551 0.0097609 -6.0721e-05 -0.0046837 -0.0077067 -0.00059388 -0.0025096 -0.0095948 0.0092171 -0.0038115 0.0011177 0.0038269 -0.0022037 -0.0095673 0.002079 0.0043207 0.0074389 0.0073614 -0.0055725 -0.0059701 -0.0045235 -0.0079971 -0.0015821 -0.0038956 0.0048545 -0.0088173 -0.0097461 -0.0088101 0.0069337 0.0055175 0.0036966 -0.0041063 -0.0092128 0.004563 -0.0048035 0.00034435 0.0046386 -0.0022721 0.0013202 -0.0076745 0.0051033 0.0037866 0.0018564 -0.0046895 -0.0065057 -0.0061845 0.0095474 
